{"input_dim": 84, "layers": [{"kernel_shape": [84, 128], "bias_shape": [128], "kernel": [[-1.2297228574752808, -1.0348726511001587, 0.5434182286262512, -0.6567868590354919, -0.3381529450416565, -0.30332356691360474, 0.4199453294277191, 0.6605879068374634, -2.630615472793579, 1.1119740009307861, 0.5430027842521667, 1.1210825443267822, 2.3731353282928467, 0.5670170187950134, -1.972960114479065, 1.9365599155426025, 0.540306568145752, -0.8467593789100647, 0.2593277096748352, -1.4211676120758057, -0.2733694016933441, -1.9359219074249268, -0.6200882196426392, -0.8099837303161621, -1.9241642951965332, 2.3770995140075684, -2.3446645736694336, -1.079646348953247, -0.16770239174365997, -1.6341313123703003, 1.6722748279571533, -0.19293084740638733, 1.8124216794967651, 4.218601703643799, -0.9635445475578308, 0.9316492676734924, -0.7502092719078064, -0.4574219286441803, -1.2656071186065674, 0.16719771921634674, -1.7786654233932495, -0.056335803121328354, -0.45363178849220276, 2.080615282058716, 0.6951145529747009, 0.8430086970329285, 0.8822611570358276, 0.2868177890777588, -0.7048773169517517, -1.2533210515975952, 0.18159028887748718, 0.24034027755260468, -2.923628330230713, 0.9870384335517883, 1.3631561994552612, 0.19589315354824066, -0.5405228137969971, 0.6083336472511292, -0.775576651096344, 0.7800019979476929, 0.9373216032981873, -2.284445285797119, -0.529425323009491, -0.579704225063324, -1.0974456071853638, -0.7203746438026428, -0.21216723322868347, -0.30643221735954285, 1.9972434043884277, 0.49967607855796814, 1.0593489408493042, 2.4509623050689697, 0.5047787427902222, 0.6475765109062195, -1.9591985940933228, -0.44995591044425964, 0.13234980404376984, -1.0845246315002441, -0.333810031414032, 2.0459272861480713, -1.518580675125122, -1.3662694692611694, -0.4645172953605652, 2.8902714252471924, 1.0004786252975464, -2.506282329559326, -0.0032704833429306746, -0.09689012914896011, -1.7486969232559204, -2.2351059913635254, 2.2254891395568848, -2.008563756942749, 0.37982138991355896, 0.5321907997131348, 1.1782785654067993, 0.15297771990299225, 0.9956146478652954, 0.2643587589263916, 3.398951292037964, -0.6090219616889954, 0.5355536937713623, 0.05943853035569191, -0.3459799289703369, 1.6123311519622803, -1.11312735080719, -0.30951258540153503, -1.168343186378479, -0.009574966505169868, -0.3275146782398224, 1.5904291868209839, -2.527510643005371, -0.9875133037567139, 1.9940003156661987, 1.9389289617538452, 0.2951948940753937, -1.8991059064865112, -0.6415278911590576, -1.9982472658157349, 0.8575196862220764, -0.9365537166595459, -1.652570128440857, 0.049716152250766754, -0.4292321503162384, 0.9162474870681763, -0.3336842656135559, -1.7675048112869263, -1.1638455390930176, 0.5624061226844788], [-1.0090765953063965, -2.2886886596679688, 1.0429648160934448, -0.12081041187047958, -1.43595290184021, -1.6296223402023315, 1.819046974182129, -0.5167548656463623, -2.2655482292175293, -0.6345130205154419, 0.7421301603317261, 0.9442077279090881, -2.321505308151245, 0.09823371469974518, 1.7419381141662598, -1.2120625972747803, 0.11366527527570724, 0.2062048465013504, 0.6248390674591064, -1.2168246507644653, -0.5727103352546692, -3.037249803543091, -0.20390495657920837, -0.5533727407455444, -2.1196651458740234, 3.0127036571502686, -0.36418235301971436, 1.4195010662078857, 0.6430095434188843, 1.736754298210144, 1.6717545986175537, 0.20031484961509705, 1.0747166872024536, -3.0656113624572754, -0.49171173572540283, -0.5475570559501648, 1.413663387298584, 0.022196058183908463, 0.09329231083393097, -2.994269609451294, 0.23238173127174377, 0.06293759495019913, -0.6677400469779968, 1.1936593055725098, 1.8006715774536133, 0.8373154401779175, -1.2270848751068115, -0.9212375283241272, -0.33909568190574646, -0.20479953289031982, -1.2317326068878174, -0.4838200807571411, -0.361629843711853, 0.6944847702980042, 1.2218965291976929, -1.1532212495803833, 0.6066625118255615, -1.0052554607391357, -0.7363181710243225, 0.8449651598930359, 0.3242545425891876, -1.1186646223068237, 0.6782402992248535, 0.21036724746227264, -1.656896948814392, -0.6081948280334473, 1.763368010520935, -0.2878153920173645, 0.5848983526229858, -0.44627758860588074, 0.9316667914390564, -2.4550998210906982, -0.6505414843559265, -0.6400360465049744, -1.2880222797393799, 1.2643834352493286, -1.3376809358596802, 0.40858975052833557, -0.9678949117660522, -1.0249605178833008, 1.197157859802246, 1.373811960220337, 0.023819265887141228, -1.1031866073608398, -0.22247183322906494, -2.241548538208008, 0.6615597009658813, -1.3913706541061401, 2.111673593521118, -1.1311193704605103, 0.18961764872074127, -0.9605094790458679, 0.12091155350208282, 1.6184728145599365, 1.9568616151809692, -1.3280600309371948, -1.144428014755249, 2.671938180923462, 2.2876622676849365, 0.16173364222049713, 1.44035005569458, -2.4209420680999756, 0.6526317000389099, 1.3146588802337646, 1.0853122472763062, -0.15129218995571136, 0.1249798908829689, 0.7219728827476501, -1.0344960689544678, 0.5272383689880371, -0.4188586473464966, -0.19555671513080597, -0.37193524837493896, 1.897533893585205, 1.2890545129776, -0.6600403785705566, 0.9389135241508484, -1.6599911451339722, -0.78407883644104, -3.164698600769043, 0.0023273546248674393, 1.0961345434188843, 0.039109934121370316, -0.864977240562439, 0.14097891747951508, -0.9027210474014282, 0.02463102899491787, -0.3296300768852234], [1.0091464519500732, -0.3973584473133087, -1.3852530717849731, 0.16101151704788208, 1.042526364326477, -1.6359437704086304, 0.36020398139953613, 0.4434642195701599, -3.232856512069702, -2.0026793479919434, 0.054935272783041, 0.19529812037944794, -4.516942024230957, 0.42416393756866455, 3.730531692504883, 1.9859559535980225, -0.4426421821117401, 0.56227707862854, -0.9703234434127808, 1.0725910663604736, 0.7947016358375549, -1.6879842281341553, 0.603877604007721, 0.5903642177581787, -1.3779120445251465, 3.516568183898926, 2.6154160499572754, 0.5006976127624512, -0.9424846768379211, -1.4016438722610474, 2.7315919399261475, -0.016615642234683037, 0.5437813401222229, -3.0072877407073975, -0.8270286321640015, -2.509141683578491, 0.936225414276123, 1.3670804500579834, 0.08476145565509796, -3.5138046741485596, 0.6914485096931458, -0.5846697688102722, -0.9233994483947754, -1.360625982284546, 0.5867886543273926, -0.013482569716870785, 1.4776597023010254, 1.6964062452316284, 1.432666540145874, -0.3433924913406372, -1.3744800090789795, 0.9386799335479736, 4.005234241485596, 0.20010122656822205, -1.5565177202224731, 2.740172863006592, 0.34679827094078064, 1.2503665685653687, -0.8156167268753052, -0.551236629486084, 1.546511173248291, 1.1801695823669434, -0.5549675822257996, -0.35131195187568665, -0.968566358089447, 0.2384955734014511, 0.40442124009132385, 0.12305770069360733, 1.1483885049819946, 1.3085156679153442, 0.9694796204566956, -2.2285006046295166, -1.289649248123169, -0.901857316493988, -2.2576029300689697, 0.15006761252880096, 0.16119951009750366, -1.3820183277130127, -0.31895291805267334, -1.9477139711380005, -0.590019941329956, -1.7671724557876587, 1.1130632162094116, 1.6966830492019653, -0.02030434086918831, 5.718333721160889, -1.3400025367736816, -0.8641961216926575, -1.6829278469085693, -0.8964947462081909, -0.599426805973053, -1.0164045095443726, -0.1711878776550293, 6.465528964996338, 0.5739904642105103, 0.13976049423217773, 2.3385863304138184, 0.8942469954490662, 2.675332546234131, 0.6718423962593079, 0.9621415138244629, 1.4172658920288086, -0.7022822499275208, -0.23406141996383667, -1.3293219804763794, -0.417178213596344, 0.8401825428009033, -1.1638532876968384, 1.2815799713134766, 1.8642218112945557, -2.9357504844665527, 0.6045373678207397, 2.731656074523926, -0.7953436970710754, 0.3048131763935089, 0.21993499994277954, 1.0250322818756104, -0.2601322531700134, 0.7135576605796814, 2.2646865844726562, 1.3105753660202026, 0.9209840893745422, -0.25387895107269287, -0.23044832050800323, -0.8501229286193848, 0.4136936664581299, 0.8630732297897339, -0.040760502219200134], [-1.63825523853302, 3.358407497406006, -1.6853947639465332, 0.5334948301315308, -1.2769688367843628, -1.6513055562973022, -2.5561606884002686, 2.0677571296691895, -0.6908014416694641, 1.7340599298477173, -0.6453925967216492, 0.9636104106903076, -1.0419776439666748, -0.7569614052772522, 1.5779136419296265, -3.643432378768921, 0.12462923675775528, 0.5040586590766907, 0.9835284948348999, -0.06616608798503876, 0.7661918997764587, -0.5358361005783081, 1.6978561878204346, 0.7216612100601196, 2.1242949962615967, 1.4059141874313354, -1.8842010498046875, -0.3422156572341919, -1.0385736227035522, -1.2495287656784058, -0.09857136756181717, 0.46743083000183105, -1.9163658618927002, 1.4394712448120117, -0.3179129958152771, -1.639057993888855, 1.3705058097839355, -1.8266549110412598, 0.8623807430267334, 4.653536796569824, 1.6245237588882446, -1.4717118740081787, -0.7004213333129883, -1.4625730514526367, -1.0302103757858276, -2.4843320846557617, -0.11114636808633804, -0.2637907862663269, -1.5789202451705933, -0.16179877519607544, -1.2577725648880005, 0.6978399157524109, 2.0013139247894287, 0.9557003974914551, 0.5600627064704895, 0.7766794562339783, -0.26080837845802307, 0.3805682063102722, -1.1887868642807007, 0.47999778389930725, 0.7192642092704773, 1.6133716106414795, 1.4956591129302979, -0.2965138554573059, -0.48465651273727417, 0.882036566734314, 0.7196580767631531, -0.8271157741546631, 0.7636244297027588, 3.932992458343506, -0.18809513747692108, -1.3996953964233398, 0.952523946762085, 0.11161135137081146, 0.17219607532024384, -0.4035179913043976, 0.9115379452705383, 0.878238320350647, 0.05898330360651016, -2.2982099056243896, -1.752254843711853, -0.8209883570671082, 0.5107316970825195, 3.2099034786224365, 0.7359017729759216, -0.48634397983551025, -0.8563781380653381, -1.3615217208862305, -1.2398478984832764, -1.6731361150741577, -1.1255345344543457, -0.14677934348583221, -0.244068443775177, 0.21763835847377777, -1.8046919107437134, 1.4342976808547974, 0.7358019948005676, 3.0138518810272217, -3.027601480484009, -0.16542617976665497, 0.9599848985671997, -2.2445778846740723, -0.2520316243171692, -0.944276750087738, 0.03825336694717407, -0.30758902430534363, -0.3207428753376007, 3.191542387008667, 0.3436964154243469, 0.8975474834442139, -1.1074681282043457, -0.7977321147918701, 4.378210544586182, 1.9193780422210693, -1.935594916343689, -0.23956885933876038, 0.4231480062007904, 0.6020104885101318, -0.6290547847747803, 2.0568301677703857, 0.5895850658416748, 0.3374342918395996, -0.4338664412498474, 1.2917438745498657, -1.8148741722106934, -0.0713929757475853, 1.998578667640686, -0.7795528769493103], [0.44157519936561584, -1.5172885656356812, -0.0032490710727870464, -0.014573383145034313, -0.31820037961006165, -1.8484656810760498, 2.440493106842041, -2.070791721343994, -2.2380290031433105, 0.3010999858379364, 0.7999798655509949, -1.536868929862976, -0.2749120593070984, 0.14879654347896576, 0.061684589833021164, 3.3854751586914062, 0.11014600098133087, -0.553922176361084, -0.45901769399642944, 0.2021404355764389, -0.18573777377605438, 2.643401861190796, 0.522964596748352, -0.08436578512191772, 1.6072933673858643, 0.018962780013680458, -1.6103253364562988, 0.9600377678871155, -0.3806478977203369, 1.535454273223877, -1.013903260231018, 0.7964368462562561, -1.098357081413269, -3.740187168121338, 1.1070476770401, 2.2636501789093018, 0.07773294299840927, 1.8063561916351318, -0.3163084387779236, 0.4008745849132538, 0.718782901763916, -0.6020764112472534, -1.3079127073287964, 2.4056034088134766, -2.3193836212158203, 2.9332871437072754, -1.1162017583847046, -0.4322775602340698, 1.0499310493469238, 0.06600745767354965, -0.1483088731765747, 0.6096059083938599, -3.628511905670166, -0.1873234659433365, -1.3923473358154297, 2.200192451477051, -1.1338543891906738, 1.4051539897918701, 0.6738981008529663, 0.49236705899238586, -1.797684907913208, -3.163217067718506, 0.3311796188354492, 0.9564247131347656, 0.3397110402584076, 1.706498384475708, 1.209855556488037, -0.12806808948516846, 2.0244035720825195, -1.3905258178710938, 0.6832462549209595, -0.06987214833498001, 1.1775089502334595, -0.5762201547622681, -1.21680748462677, -0.9571893811225891, -0.5698027014732361, -2.79761004447937, -0.314475953578949, -1.9716144800186157, 1.6833659410476685, -2.5218613147735596, 0.9301678538322449, -1.2439860105514526, 0.6093744039535522, 0.08732730150222778, -1.0028526782989502, -1.563893437385559, 0.8897016048431396, 2.5353658199310303, -0.3424101769924164, 1.8957520723342896, 0.2795388400554657, 1.8468860387802124, -0.5492205619812012, -0.23307456076145172, -0.7954505085945129, 1.4835234880447388, 0.11280953139066696, -0.14412710070610046, -1.5200223922729492, -0.3531544804573059, 0.11830075085163116, 2.398679256439209, -1.0746713876724243, -1.158713459968567, 1.359019160270691, 3.587923765182495, 0.012940781190991402, -0.2586284279823303, -3.2358691692352295, 0.03233630210161209, -3.972764253616333, 0.1644808053970337, -0.7331640720367432, 0.06424308568239212, 0.3415048122406006, -2.6976263523101807, -0.620640218257904, 1.9491515159606934, -0.6605915427207947, -1.135754942893982, 0.22315606474876404, 0.4694119393825531, 1.6872458457946777, 0.641096293926239, 0.1367790251970291, 0.14009730517864227], [-1.50525963306427, -0.7219823002815247, -0.8284220695495605, 0.3211246728897095, 0.12382542341947556, -0.9484350681304932, 1.0332224369049072, 0.742325484752655, 0.020383544266223907, 1.8133668899536133, -1.3796077966690063, -1.8316148519515991, 0.7749913334846497, 0.42475947737693787, 0.28165706992149353, 1.9257034063339233, 0.4078211784362793, 0.6770793199539185, 0.6586803793907166, -0.8069852590560913, 1.0574716329574585, 2.4447479248046875, 1.5089998245239258, 0.7125164866447449, -1.2447125911712646, 3.368455648422241, 0.45492374897003174, -2.3340115547180176, -0.9881724119186401, -0.20132699608802795, 1.1803401708602905, -0.8665821552276611, 0.13062401115894318, 2.9573850631713867, -0.2128087878227234, -1.5213218927383423, -1.426674485206604, 0.2131572961807251, -0.3291272222995758, -0.9967178702354431, 0.9783977270126343, -1.3876872062683105, 0.8681151866912842, -1.3418030738830566, 2.1487905979156494, -1.4982225894927979, 2.7311079502105713, 1.060522198677063, -0.47670647501945496, 0.8762162327766418, -1.7528523206710815, -0.690980851650238, 1.9992939233779907, 0.12044520676136017, -0.9332521557807922, 2.0033717155456543, -0.30461952090263367, 0.6226611733436584, 1.271263837814331, 0.24178211390972137, 1.2511636018753052, 1.6217392683029175, 0.9195513725280762, -0.39128464460372925, 0.538682758808136, 0.8991797566413879, 1.8294156789779663, -0.020458552986383438, 1.7386891841888428, -0.5518499612808228, 0.29260754585266113, 2.442352294921875, -0.6487980484962463, 0.7118528485298157, -1.415958285331726, 0.4826565682888031, -1.399030327796936, 0.5219067335128784, -0.5287314653396606, -2.359376907348633, -0.7519469857215881, 0.2687019407749176, 0.003810825292021036, 0.11829744279384613, 1.2083237171173096, -2.71146821975708, -1.4278672933578491, -0.627178430557251, -0.15733660757541656, -1.1432181596755981, -0.5418052673339844, -0.35485732555389404, -0.1758551448583603, 4.318005561828613, 0.9438208937644958, -0.407397985458374, -1.8869675397872925, -0.41605985164642334, -1.5867016315460205, -0.4862205684185028, 1.9756897687911987, 1.6338915824890137, 0.0035416027531027794, 0.5061656832695007, 0.9430027604103088, -0.11909112334251404, 0.19816170632839203, 1.0260509252548218, -0.31679630279541016, 0.36502793431282043, -1.6237008571624756, -0.22031575441360474, 4.0222368240356445, 0.9725787043571472, -0.7038123607635498, -1.233298897743225, -0.45545393228530884, 0.9904602766036987, -1.291436791419983, -1.8095827102661133, 0.6985248923301697, -0.009135747328400612, -1.017439603805542, -0.625242292881012, 1.6955711841583252, 0.053682148456573486, 2.0359232425689697, -0.2756330370903015], [0.3064480423927307, -0.8313718438148499, -1.1854579448699951, -0.7015712857246399, 1.3188056945800781, 0.6221168041229248, 1.6667999029159546, -1.0847548246383667, 1.5743213891983032, 1.279927372932434, -0.6101022958755493, 0.19962885975837708, -1.2121137380599976, 0.1582348793745041, 3.3218533992767334, 3.2597944736480713, -0.5465821623802185, -0.8115537762641907, 0.6820855140686035, -0.9456053376197815, 0.24599382281303406, 2.046098232269287, -1.1288042068481445, 0.0042545851320028305, -2.657569408416748, 2.6519031524658203, -0.5777406692504883, -0.9322136044502258, 0.5909014344215393, -1.7658227682113647, 0.8697380423545837, -0.36243736743927, -0.09928282350301743, 0.48011621832847595, -1.5982004404067993, 2.7573983669281006, -0.5454263687133789, 0.7402752041816711, -1.327260971069336, 2.219083309173584, 1.2385293245315552, 0.8576956987380981, 0.2373957633972168, 1.0780243873596191, 0.36015117168426514, 0.22310690581798553, -0.5130408406257629, 1.5011526346206665, 0.2190590798854828, -0.4143665134906769, -0.7931913733482361, 0.021062031388282776, -2.231950044631958, 1.2184836864471436, -0.620345950126648, -1.6367852687835693, -0.8824427723884583, -0.22217442095279694, -0.35427993535995483, 0.48154330253601074, 1.4198070764541626, -2.187127113342285, 0.4012089967727661, 0.14344963431358337, 1.3261098861694336, -0.5185139775276184, -1.3248028755187988, 0.17684023082256317, -0.11398547142744064, -1.4044636487960815, 0.9132582545280457, -1.8904688358306885, 2.2819714546203613, 0.6002896428108215, 2.196845531463623, 0.216435506939888, 0.11162196844816208, -3.083944320678711, -0.4767581820487976, -0.7113205790519714, 0.6822725534439087, -2.728437662124634, 0.9129949808120728, 1.9356422424316406, -1.1235172748565674, -1.3724989891052246, -0.7742729783058167, 1.002699613571167, 0.20993691682815552, 2.7091708183288574, -1.3318090438842773, 0.3358610272407532, 0.26806458830833435, -2.718743324279785, 1.5907007455825806, -0.7473759055137634, -1.375148057937622, 0.8967484831809998, -1.6279963254928589, 0.25020837783813477, 1.0657291412353516, -2.1743061542510986, -0.3395577371120453, 0.3724220395088196, 0.05453014001250267, 0.07744482159614563, 1.0541189908981323, 0.17015722393989563, 0.2799581289291382, 2.366551160812378, 0.025422563776373863, 0.8790804743766785, -1.2987922430038452, 0.23484082520008087, 0.7250582575798035, 0.734982430934906, -0.6988458037376404, -1.8092269897460938, 0.09887663275003433, -2.6529700756073, 1.2697691917419434, 1.4810248613357544, 0.11284638941287994, 0.8031330108642578, -2.3780763149261475, 0.36457106471061707, -1.4330700635910034, -0.03920814394950867], [-0.163445383310318, 2.201523542404175, -0.3656582534313202, -0.10057371109724045, 0.2725812792778015, 0.37779468297958374, -0.6980516314506531, -0.6113590002059937, -2.3145833015441895, 0.6536343097686768, -0.8633332848548889, 0.5239802598953247, -0.07367167621850967, -0.50921231508255, 2.223301887512207, -0.08437754958868027, -0.26469334959983826, -0.10093502700328827, 1.167818546295166, -0.7852391600608826, 0.08418501168489456, -2.2860019207000732, 0.3034757077693939, -0.2531629502773285, -1.3435463905334473, 1.6152466535568237, -2.5490739345550537, 1.7338862419128418, -1.0455026626586914, -0.09539924561977386, -3.09676456451416, -0.5482790470123291, -2.200803756713867, 1.0346064567565918, -2.047863483428955, 3.3792264461517334, -0.567171573638916, -1.1004287004470825, -1.6660048961639404, 1.0051281452178955, 0.7021724581718445, -1.5014582872390747, 1.077817440032959, 0.05568590760231018, 0.4529326558113098, 0.5777493119239807, 0.7544976472854614, 0.6051387786865234, -1.4146062135696411, -0.07808054983615875, 0.862865686416626, -0.5381306409835815, 0.19553294777870178, -0.7983273863792419, 0.6666001677513123, -0.7453290820121765, -0.5306783318519592, -0.08485563099384308, 0.1090664342045784, 0.6852439641952515, 0.9319896697998047, 3.214785099029541, 0.42472317814826965, -0.1869373619556427, -0.2404208928346634, -1.158307433128357, -1.211429238319397, 0.8452785611152649, 1.5239176750183105, -0.9960659146308899, 0.6378868222236633, 0.07908514142036438, -0.0807557925581932, -0.01995277777314186, 0.9383740425109863, 1.320271372795105, -1.065512776374817, 0.5367639660835266, 0.24427492916584015, -0.5798254013061523, -0.9451238512992859, 0.42351365089416504, 0.7784166932106018, 3.714745283126831, -0.46744656562805176, -4.781545639038086, 0.372862309217453, -2.123509407043457, 0.5567429065704346, 2.8804924488067627, -2.719933271408081, 2.3362669944763184, 0.5336578488349915, -0.2806739807128906, 2.443347454071045, -1.0713499784469604, 0.08441757410764694, 0.6603017449378967, -1.8298450708389282, -0.34013089537620544, 1.254209041595459, -0.43462082743644714, -0.44385021924972534, -1.4680287837982178, 0.8893221020698547, -0.5160850286483765, 1.5155047178268433, 1.8960331678390503, 0.16289091110229492, -2.0923123359680176, 1.513816475868225, -0.6365506649017334, -0.4050743281841278, 0.0575178861618042, -0.19154967367649078, -1.405415415763855, 0.819866955280304, 1.6844391822814941, 0.40751564502716064, 2.673607349395752, 1.7507797479629517, -0.6993672251701355, 0.474636048078537, -0.6311952471733093, -1.2047233581542969, -1.8650823831558228, 1.119301199913025, -0.5996754169464111], [1.0650330781936646, -0.19610270857810974, 0.07064435631036758, 0.3758545517921448, -0.8991873264312744, 0.9353290796279907, -0.05946755409240723, 0.665992021560669, -2.905329942703247, -1.9220144748687744, 0.0011569744674488902, -1.6171194314956665, -1.357772707939148, 0.7164402604103088, 0.11672966927289963, 3.705660343170166, 0.11724653095006943, -0.5834716558456421, 0.5733814835548401, 0.2871319651603699, -0.4405083656311035, -1.30376398563385, -0.749416708946228, -0.6573812365531921, -1.1429952383041382, -2.4781696796417236, -1.846900463104248, -1.7179677486419678, 0.5650608539581299, 0.08653754740953445, 0.603987991809845, 0.7380295991897583, 0.4736313223838806, -1.7382522821426392, -1.1121561527252197, -0.11751814931631088, 2.035463333129883, 0.5830479264259338, -1.3620355129241943, 2.2284669876098633, 0.14863820374011993, 0.141241192817688, -1.639267086982727, -1.1726850271224976, -3.343709945678711, -0.028532296419143677, -0.9501467943191528, -1.677099347114563, -0.0578421987593174, -0.5974747538566589, 0.820624828338623, -0.22155489027500153, -1.6889280080795288, 0.20206640660762787, 1.6067785024642944, -0.5735383033752441, -0.9047167301177979, -0.08091114461421967, -0.24777057766914368, -0.29278379678726196, -1.4461262226104736, -1.8897672891616821, 0.18035726249217987, -0.15831312537193298, 1.0356848239898682, -1.1281613111495972, 0.7236271500587463, 0.3225061297416687, -0.1738322675228119, 0.8705386519432068, -0.10873778164386749, 0.30981215834617615, 1.4450808763504028, -0.019368568435311317, -0.10761509835720062, 0.13882187008857727, 0.952778697013855, -0.11564631760120392, -0.4849456548690796, 1.8770118951797485, 0.21822430193424225, -1.8785825967788696, 0.8774241209030151, 1.839718222618103, 0.029201246798038483, 0.5805341601371765, -0.9168009757995605, 0.7707391977310181, -2.3917551040649414, 0.3196144104003906, 1.9593300819396973, -0.6815420389175415, 0.454439640045166, 3.3458783626556396, 0.09968944638967514, -1.0606675148010254, -1.5497610569000244, 3.7678627967834473, -1.9324315786361694, -0.15092362463474274, -1.8939188718795776, 0.3215824067592621, -0.015152131207287312, 1.6306507587432861, -0.3685804009437561, -0.8941404819488525, -0.9901350736618042, -0.6312613487243652, -0.7809340953826904, 1.703779697418213, -0.4372428357601166, -0.3598686158657074, -0.23937338590621948, 0.6396254301071167, -0.4506094753742218, -1.9576587677001953, 0.6868879199028015, 1.1101356744766235, 0.8818358778953552, -2.7785279750823975, -0.13611984252929688, 0.8526992201805115, 0.05445098504424095, 0.9026679396629333, -1.69087815284729, -0.13925383985042572, 0.9450753927230835, 0.08143746852874756], [-1.0765458345413208, -2.542024850845337, 0.6721940636634827, 0.32140952348709106, 0.45324385166168213, 2.2631711959838867, 0.4493844211101532, 2.013766288757324, 2.835672378540039, -0.6821708679199219, -1.9027283191680908, 3.146115779876709, 0.9434905648231506, 0.7524827718734741, -0.09375037252902985, 0.3537256419658661, -0.043370213359594345, 0.6881844997406006, 0.34485289454460144, -1.8036324977874756, -0.6888144612312317, 0.2257193773984909, -1.2564294338226318, -0.031332291662693024, -0.6217498779296875, -3.0764946937561035, -0.49016427993774414, 0.9337819814682007, -0.4064664840698242, 0.8449246287345886, -3.916785478591919, 1.2580598592758179, -0.7319355607032776, 0.959112286567688, 0.3176063895225525, 2.41554856300354, -2.655242443084717, -1.9271154403686523, 1.7065809965133667, 1.3175950050354004, 1.880459189414978, -1.285092830657959, 0.917011559009552, 3.0624659061431885, -0.24432256817817688, 2.183192491531372, 2.203521728515625, -0.5291625261306763, -0.11955537647008896, -0.465462327003479, 0.5234062075614929, 0.05064918473362923, -0.9325818419456482, -1.1133975982666016, -1.4010953903198242, -0.0180616844445467, 0.381925493478775, -0.3063962757587433, 0.0016925547970458865, 0.37418556213378906, 2.694485664367676, -0.7557741403579712, -0.6803853511810303, 0.23778891563415527, 0.09856187552213669, -0.4957752525806427, 0.698419988155365, 0.021288761869072914, 1.1867066621780396, -2.9701285362243652, 0.16478388011455536, 4.0010457038879395, -1.9243786334991455, 0.3908424973487854, 2.080764055252075, 0.6927422881126404, 1.565416693687439, -1.1480870246887207, -0.37589210271835327, -0.7321606874465942, 1.68258535861969, -1.3079367876052856, 0.08317102491855621, 3.9827094078063965, -0.6570375561714172, -4.979099273681641, 0.39151641726493835, -1.9318948984146118, 1.7262698411941528, 2.9025790691375732, -2.3928937911987305, -0.6196454763412476, 0.583728551864624, -0.20918545126914978, -0.7022800445556641, 0.3393574059009552, -0.9070886373519897, 3.3739023208618164, -0.293143630027771, -0.4377071261405945, -0.5579599142074585, 2.5191993713378906, -0.7860797643661499, 0.310280442237854, 0.9072418808937073, -0.4074997305870056, 1.1689034700393677, -1.86841881275177, -1.6083952188491821, -0.16148217022418976, -0.7529500126838684, -0.4821951985359192, 1.065999150276184, 1.850145936012268, -1.503507375717163, 2.437884569168091, 2.3090498447418213, 3.034745693206787, -1.8680318593978882, -0.6729356050491333, 0.39261096715927124, 1.0612390041351318, 0.05340740457177162, -0.7647274732589722, -1.1446797847747803, 0.27136221528053284, 0.20912247896194458, -0.08221253007650375], [-0.2070436030626297, -2.0422401428222656, -0.5087201595306396, 0.6626654863357544, -2.332747459411621, -1.7735707759857178, -2.6827924251556396, 2.4792613983154297, 3.3408470153808594, -0.29711923003196716, 0.201476588845253, -1.5693776607513428, 0.961860179901123, 0.46757933497428894, -0.7047964334487915, -1.6071150302886963, -0.06566911935806274, 0.28100690245628357, -0.06395134329795837, -1.6570589542388916, -0.3598395586013794, 1.8770818710327148, -0.7813318967819214, 0.3300718069076538, -0.5252395868301392, 0.08770900219678879, 2.0378031730651855, 0.7939752340316772, 0.31287437677383423, 2.0643649101257324, 2.0349013805389404, -0.07979836314916611, -0.493125855922699, 1.1259361505508423, 0.9181221127510071, -2.443455457687378, 1.1435428857803345, -0.9429582357406616, -0.1746508777141571, -4.353698253631592, -1.7145758867263794, -1.0711592435836792, -1.0404702425003052, 1.6813479661941528, -2.119232177734375, 1.8430116176605225, 0.08828049898147583, -0.5835105776786804, -1.1990456581115723, -0.9601700901985168, -1.484006404876709, 0.9937898516654968, -1.2218883037567139, 0.9795348048210144, -0.8040463924407959, 0.6757715940475464, -0.559349775314331, 1.117002010345459, -0.17849843204021454, 0.3411661386489868, 0.09419772028923035, -1.0729591846466064, -0.647087574005127, 0.7539669275283813, 0.21852490305900574, 0.677343487739563, -1.1084026098251343, 0.4471099376678467, -1.8504149913787842, 0.04674723744392395, 0.2936205565929413, -0.3729635179042816, 2.3139710426330566, -0.6336076259613037, 1.5942933559417725, 0.25948718190193176, -1.0525821447372437, 3.0663363933563232, -1.3434956073760986, 2.499479293823242, -0.12258434295654297, -0.6783049702644348, 0.09450067579746246, 1.321573257446289, 1.2378997802734375, 2.8473265171051025, -0.20414632558822632, -1.4315221309661865, 0.4769221246242523, 1.0752407312393188, 1.3682448863983154, -1.3111979961395264, 0.2972819209098816, -3.1910693645477295, 1.6897231340408325, -0.7298392653465271, 0.4685092270374298, -2.8132309913635254, 1.513911485671997, 0.2173302322626114, 0.6115695238113403, 1.7570102214813232, 0.28682610392570496, -0.08042535930871964, -1.5209181308746338, -0.8038573265075684, -0.6589140295982361, -0.9716640710830688, -0.9889074563980103, -0.4283792972564697, -2.4149739742279053, 0.9461597204208374, 0.594717800617218, -1.6788547039031982, 1.0559107065200806, 1.6171311140060425, 0.8334439396858215, -1.1350579261779785, -0.3896622359752655, -3.067058563232422, 0.38730674982070923, 0.05930883809924126, 0.017926953732967377, 0.8114745020866394, -3.0596516132354736, 0.8986894488334656, 0.9428260326385498, 0.22709360718727112], [0.37033119797706604, -0.5150766968727112, -1.450636863708496, -0.5588358044624329, -0.8382278680801392, 0.550786018371582, 4.048394680023193, -0.15829533338546753, 2.1209959983825684, 0.9856969118118286, -1.0730677843093872, 2.0654690265655518, 3.764240026473999, -0.8107024431228638, 1.3844928741455078, 1.3711150884628296, 0.1645192801952362, 0.7867085933685303, 0.08717983216047287, 1.0615684986114502, 0.21641336381435394, -0.5810184478759766, 0.13274455070495605, -0.17321452498435974, 1.1679080724716187, -2.502347707748413, 1.8071825504302979, -1.4046249389648438, -1.0521825551986694, -1.1267489194869995, 0.21852067112922668, 0.919542670249939, 0.08734120428562164, 2.144380569458008, 0.4135296642780304, 2.965193510055542, -1.2669503688812256, -1.569109320640564, -0.7043829560279846, 3.7460103034973145, -0.3166539967060089, 0.28320351243019104, 0.8251107931137085, -2.9169256687164307, -1.2889302968978882, -0.7540358304977417, 1.6280330419540405, 0.30353033542633057, -0.746447741985321, -0.3853960335254669, 0.8765199780464172, -0.3398115038871765, 0.07830598205327988, 0.4874587655067444, 0.4054289758205414, -0.18007080256938934, -0.7530755996704102, 0.2588158845901489, 0.6930572986602783, -0.44443732500076294, -1.1670269966125488, 1.5288420915603638, 0.882978081703186, 0.2909040153026581, -2.30557918548584, -1.538177251815796, 0.27529916167259216, 0.636651337146759, 0.5904884934425354, 0.2755877375602722, 1.273571252822876, 0.6517729759216309, -0.006665489170700312, -0.5540260672569275, 0.6125086545944214, -0.4635731875896454, -0.4041427969932556, -0.9241275191307068, 0.1982409805059433, 2.297682285308838, -0.9547522068023682, -1.6302075386047363, -0.4417477548122406, 2.9150097370147705, 0.2336089015007019, 4.610960960388184, -0.8811135292053223, -0.22614145278930664, 1.322431206703186, -1.3143047094345093, 1.6377578973770142, -0.36521315574645996, -0.23146675527095795, 0.74825119972229, -0.9736528396606445, -1.2365772724151611, -1.1653673648834229, -0.08304694294929504, 0.11747381836175919, -1.2130376100540161, 0.8832494020462036, 2.4040725231170654, 0.6383090019226074, 1.5443758964538574, -0.8821709752082825, 0.5183423757553101, -0.5526825785636902, 3.041033983230591, -1.0108660459518433, -1.1360653638839722, -0.7076236605644226, -0.9969280958175659, -2.413632869720459, -2.290785074234009, 0.0199744775891304, 1.2328864336013794, -1.4232177734375, -3.7339141368865967, -0.18529973924160004, 1.1277436017990112, 0.20889271795749664, 0.6944205164909363, 0.43621960282325745, -0.6893692016601562, 2.307835578918457, 1.8027379512786865, -0.8351063132286072, -0.49508988857269287], [-0.6386002898216248, -2.18276309967041, 1.2598389387130737, -0.05311078950762749, 1.132546305656433, 0.5663639903068542, -1.4297314882278442, -0.33263105154037476, -0.4373706579208374, -1.2626848220825195, -0.854852020740509, -1.9613490104675293, 2.5898656845092773, 0.5760000944137573, -3.0034916400909424, 3.807349681854248, -0.26210543513298035, 0.47272127866744995, -1.0423672199249268, -0.7373687028884888, 0.2881619334220886, 3.1024258136749268, -1.2606849670410156, 0.08934933692216873, -0.6886304616928101, 0.5042191743850708, 0.08252570033073425, -1.1677978038787842, -1.0097771883010864, -0.26021575927734375, -1.4419325590133667, 0.228407084941864, -2.076066732406616, 0.0063762543722987175, -2.0734760761260986, 1.8749626874923706, 0.09256451576948166, 0.32306772470474243, -0.953479528427124, 0.24050745368003845, 0.05928892642259598, 0.19623635709285736, 0.15775495767593384, 1.9928960800170898, 1.6984418630599976, -1.3414002656936646, 0.45055723190307617, 1.537663459777832, 0.1653900295495987, -1.1486350297927856, -0.7556055784225464, 0.37344491481781006, -0.6742310523986816, 0.13092198967933655, 0.3834643065929413, -1.725348711013794, -0.9256866574287415, 0.5816235542297363, -0.17863455414772034, -1.194063663482666, 1.6771272420883179, -0.7254394888877869, 0.6220505833625793, 0.8405205607414246, 0.4119919538497925, 1.1509112119674683, 0.5126438140869141, -0.07404674589633942, -1.5369372367858887, -1.5217565298080444, 0.1606123000383377, -0.8673793077468872, -1.4324711561203003, -0.5983297824859619, -0.5434294939041138, 0.16056083142757416, -2.261545419692993, -1.7259126901626587, 0.20231404900550842, -2.6203019618988037, 0.4660661220550537, -2.1552209854125977, -0.7784151434898376, -2.604199171066284, -0.14636318385601044, -1.4541957378387451, -0.11727304011583328, 1.8750171661376953, 1.5768824815750122, -3.082141876220703, -2.0501396656036377, 1.7663087844848633, -0.02714165300130844, -0.49958041310310364, 0.38656195998191833, -0.6004933714866638, 0.518397331237793, 0.20001132786273956, -0.012587375938892365, -0.16163037717342377, 0.22428685426712036, 1.0586670637130737, -0.1716989129781723, -1.0760509967803955, -0.5034908056259155, 0.41314834356307983, -0.13818058371543884, -0.49361395835876465, 0.8431026935577393, 0.5398501753807068, 1.0787593126296997, -0.8509631752967834, 1.6608816385269165, 0.08012906461954117, -1.5201464891433716, -0.4769974648952484, 0.8059279918670654, -1.271104097366333, 0.6422631144523621, -2.5842413902282715, 1.395876169204712, 0.7868009805679321, 0.7698476910591125, -0.12299498170614243, -1.199352502822876, 1.8776745796203613, -0.3501477837562561, 0.1745472401380539], [0.5931839346885681, 0.49227434396743774, -0.896052896976471, -0.6354403495788574, 1.6820917129516602, -1.2327556610107422, 0.3335994780063629, -0.5047302842140198, -0.27118051052093506, 0.19410748779773712, 0.35841354727745056, -0.252312570810318, -1.9483250379562378, -0.6277307271957397, -0.8533245921134949, -2.698908567428589, 0.43010246753692627, 1.2471469640731812, 0.3593408763408661, 0.5033072233200073, -0.6383160948753357, 0.20493872463703156, -1.1329313516616821, 0.46363183856010437, 1.364798903465271, -3.0585272312164307, 0.44145190715789795, -0.5276705622673035, -0.49242156744003296, -1.1627737283706665, 0.7315008044242859, -0.8612619042396545, -1.5475068092346191, 3.9916810989379883, 2.204624652862549, 1.619482159614563, 1.893332600593567, 0.6711679100990295, 0.3439766466617584, -2.5231189727783203, 0.4488746225833893, 0.25263604521751404, 0.9826791286468506, 0.9084964990615845, -0.3136748671531677, -1.7850303649902344, -1.2082428932189941, 2.201035261154175, 0.5894840955734253, -0.021847199648618698, -1.1185792684555054, 0.773766279220581, -2.8235063552856445, 1.1464109420776367, -0.2514418661594391, -1.854635238647461, 0.6608707904815674, -0.31575751304626465, 0.24332073330879211, -0.7793372869491577, 1.127852201461792, -0.7920248508453369, -1.0286345481872559, 0.265252947807312, -0.6592612862586975, 0.5409471988677979, -1.0586626529693604, 0.23174549639225006, 0.7080026865005493, 1.101388692855835, -0.9251449704170227, -2.131349563598633, 1.3667157888412476, -0.4274953603744507, 1.1559730768203735, -1.1621780395507812, -1.126410722732544, 0.9752419590950012, 0.8018442988395691, 0.4882162809371948, 0.3594011664390564, 1.7966257333755493, 0.5513786673545837, -1.1247491836547852, 0.1568627506494522, 3.098127841949463, 0.07122243940830231, -0.9962103366851807, -1.916826844215393, 2.3873932361602783, 0.019124839454889297, -1.1263240575790405, 0.2982894778251648, -1.9659749269485474, 1.3665302991867065, -0.6193745732307434, 0.9551921486854553, -1.797005295753479, -1.8146286010742188, -0.15348763763904572, 1.0295995473861694, -0.5086120963096619, -0.6587424874305725, 0.6062922477722168, 0.7469819188117981, 0.1439923197031021, -1.519374966621399, -0.8389627933502197, -0.3715592324733734, 0.9395536184310913, 1.662516474723816, -0.0329589918255806, 0.2523183822631836, 1.3761494159698486, -0.6154309511184692, 2.017967939376831, -1.092995524406433, 1.1163350343704224, -1.4064346551895142, 3.5998711585998535, 0.47970840334892273, -1.214438796043396, 0.7435157299041748, 0.17924246191978455, 1.3009394407272339, 1.0789883136749268, 1.2827060222625732, -0.004906731192022562], [0.25879549980163574, -1.988588571548462, 0.4282033145427704, -0.35853615403175354, 1.1870371103286743, 1.2247767448425293, -2.328094244003296, 1.9675697088241577, 2.8457765579223633, -1.6188483238220215, 0.6421061754226685, -0.9550153017044067, 0.3154469132423401, 0.13372549414634705, 0.19387473165988922, 0.15062302350997925, 0.6836152076721191, 0.026076963171362877, 0.46022629737854004, 0.8890323638916016, -0.12892913818359375, 2.2192394733428955, 0.6731944680213928, -0.22176159918308258, 0.853544294834137, 0.20284219086170197, -0.4349283277988434, 0.7167586088180542, -0.7600279450416565, -0.8294903039932251, -1.6909828186035156, -0.7069972157478333, -1.3400521278381348, -0.47812774777412415, -1.1129649877548218, -1.1394530534744263, 0.15630032122135162, -1.5914655923843384, -1.0176650285720825, -0.7794758081436157, -0.30124521255493164, -0.48701363801956177, -1.3436312675476074, -1.8128838539123535, 1.5872067213058472, -0.5614541172981262, 1.4766924381256104, -0.5985943078994751, -0.35651710629463196, 0.8421988487243652, 0.8467298150062561, 0.257529616355896, 0.2752477824687958, 0.8202717900276184, 0.7380620837211609, -0.7733016014099121, -0.5273094177246094, 0.6329420208930969, -1.5444011688232422, -1.0537006855010986, -0.16434122622013092, 2.6760826110839844, -1.286272644996643, -0.3418445289134979, 0.5911563634872437, -0.902450442314148, 0.3552362322807312, 0.11288368701934814, -1.0905380249023438, -0.4613918662071228, -0.6553937196731567, 2.3746209144592285, -1.1960262060165405, 0.7306817770004272, 0.6679566502571106, -1.2807717323303223, -0.6998369097709656, -0.10766001790761948, -0.7573376297950745, -2.188452959060669, 1.4021278619766235, -0.8002707958221436, -0.20778299868106842, -1.6351654529571533, -0.8282080292701721, -1.013448715209961, 0.6413741707801819, 1.9493485689163208, -0.1362961083650589, -0.2995232045650482, -0.019371435046195984, 0.05752585083246231, 0.3855889141559601, -1.6675783395767212, 0.14265963435173035, -0.03331581875681877, 0.3849526345729828, 0.16127122938632965, -3.2088372707366943, 0.6787747740745544, -0.954302966594696, -2.565833806991577, 0.8090785145759583, -0.10437804460525513, -0.2619410753250122, 0.1814628690481186, -1.1636171340942383, -2.449465751647949, 0.4471507668495178, 1.6572849750518799, 0.9139513373374939, -0.3126679062843323, -1.2272415161132812, 0.3727649450302124, -0.22845321893692017, -0.4335297644138336, 0.47980374097824097, 0.2690199911594391, -0.2168595939874649, -1.9899771213531494, -0.9107000231742859, -0.27145564556121826, 0.9238506555557251, -0.6235944628715515, -2.221666097640991, -1.5212597846984863, 0.007623558398336172, -0.3122296631336212], [-0.3266833424568176, 0.9688576459884644, 0.5060075521469116, -0.49879059195518494, -1.3484283685684204, -1.0946763753890991, 0.14835596084594727, 0.4016018807888031, -1.4849035739898682, 0.8659476041793823, 0.6716799139976501, 2.208336591720581, 2.6928300857543945, 0.07596628367900848, 2.978518486022949, -2.391620635986328, -0.023325292393565178, -0.42074283957481384, -0.35136181116104126, -1.6102834939956665, 0.4269792139530182, 0.28890469670295715, -0.8513323664665222, -0.8630466461181641, 2.2114064693450928, 1.2220540046691895, 0.6556460857391357, 1.3287410736083984, -0.9375808835029602, 2.586996078491211, 2.494114875793457, 0.3385561406612396, -0.22836947441101074, 1.0735483169555664, 1.531970739364624, 2.9849660396575928, -0.008083131164312363, 1.5994130373001099, -1.8049556016921997, -1.3600945472717285, -0.23933196067810059, 1.0848196744918823, -0.9718545079231262, 1.4578584432601929, 0.5886545777320862, -0.8299003839492798, -0.29186683893203735, 2.195844888687134, 0.09923338145017624, -1.3675107955932617, -0.42255058884620667, -0.8181106448173523, -1.0581649541854858, -0.18572944402694702, 0.19265258312225342, 1.2894243001937866, 0.07785208523273468, 1.4320528507232666, 0.5762011408805847, -0.2512567639350891, -1.7246458530426025, -1.4230833053588867, -1.4964193105697632, 0.3108706772327423, 0.7174081206321716, 1.0911931991577148, 0.92547607421875, 0.5304378271102905, 1.767269492149353, 0.1667441725730896, -1.0330121517181396, -0.14555366337299347, 0.6490968465805054, -0.1020916998386383, -2.238445997238159, -0.7620880007743835, -0.7189761996269226, 1.7834044694900513, -0.5341865420341492, -2.2283177375793457, 0.6195826530456543, -0.869156002998352, -0.4747036397457123, 0.14194773137569427, -1.0395914316177368, -2.0071706771850586, -0.43127813935279846, 2.4202423095703125, -0.4670659303665161, -1.6349515914916992, 0.9612871408462524, 1.8868197202682495, 0.007191008422523737, 3.7792258262634277, 0.9295276999473572, 1.8179395198822021, 0.6438937187194824, -0.9546508193016052, 3.107053518295288, -0.7038387060165405, 0.9319131970405579, 0.44558197259902954, 0.5708865523338318, 1.5000059604644775, -1.1520867347717285, 0.149349644780159, -0.4261419177055359, 1.5769155025482178, 0.6020771265029907, 0.37426137924194336, -1.6262931823730469, -0.7088783383369446, 0.8309512138366699, -1.9810110330581665, 0.27405744791030884, 0.6786706447601318, -1.451456069946289, -3.022343397140503, 0.3442179560661316, -0.0777953714132309, -0.8685331344604492, -0.7393611073493958, 0.02496817335486412, 1.3566780090332031, 2.4362831115722656, -0.4356633424758911, 0.35689568519592285, 0.25732871890068054], [1.2948769330978394, 2.9988951683044434, -0.26500052213668823, -0.5738728046417236, -0.8411283493041992, -0.3334355652332306, -1.930070400238037, 1.6076990365982056, -2.147001028060913, -0.45490267872810364, 0.20034575462341309, -1.3528733253479004, -1.1948215961456299, 0.5010195970535278, -0.07218518108129501, -2.547367811203003, 0.6272936463356018, -0.6615683436393738, -1.0308469533920288, 1.8180277347564697, 0.23887161910533905, -3.0534608364105225, -1.1452502012252808, -0.6808508634567261, 1.8595030307769775, -0.702002763748169, 1.6958786249160767, 0.9555088877677917, -0.1667173057794571, -1.7931525707244873, 0.4528702199459076, -0.16404736042022705, 0.7921314239501953, -1.4431440830230713, -1.535364031791687, -2.7677979469299316, 1.290345311164856, 1.5911821126937866, -1.0453171730041504, -3.29548716545105, -0.4483267664909363, 0.6638345718383789, -0.32890263199806213, -1.6286211013793945, -1.769075632095337, -1.6635509729385376, 1.2972661256790161, -0.06047767028212547, -0.06922303140163422, -0.15792964398860931, 0.09450040012598038, 0.20508378744125366, 4.2191667556762695, -0.056464437395334244, 0.2662962079048157, -1.8598605394363403, -0.8682243824005127, -0.16685442626476288, -0.9469174146652222, 1.2109357118606567, 0.9791019558906555, -0.03961432725191116, -0.314501017332077, -0.3427899181842804, -0.09389245510101318, 0.261688768863678, -0.8711866736412048, 0.679477870464325, 0.4354753792285919, 2.0654067993164062, -0.08661092817783356, -1.191201090812683, 1.645283818244934, -0.3093327581882477, -0.08271269500255585, 1.3871099948883057, 2.3940110206604004, 1.578193187713623, 0.1336940973997116, 1.3264645338058472, 1.150068998336792, 1.6614534854888916, 0.24771617352962494, 2.214080333709717, 0.021800857037305832, 3.056957244873047, 0.8438737392425537, -0.24245129525661469, -0.4820631444454193, -2.9624903202056885, 0.7959538698196411, -1.5598528385162354, -0.36505353450775146, 0.4177154004573822, 1.6932076215744019, -0.9425033926963806, 1.4490013122558594, -1.4972374439239502, 3.4116578102111816, -0.021150633692741394, -1.7125991582870483, -2.4534425735473633, 0.48678407073020935, 1.40040123462677, 0.8681762218475342, 0.06689812242984772, -1.228919267654419, -3.2077012062072754, -1.0613116025924683, -1.2038387060165405, 1.54912531375885, -0.5023943185806274, 2.5479769706726074, 1.7281631231307983, 0.2373133897781372, -1.2172964811325073, 0.8532877564430237, 3.230172634124756, 0.029537426307797432, -3.196697950363159, -0.37711355090141296, 0.5106461644172668, 0.313286155462265, 1.2220934629440308, 1.0101780891418457, -0.831920325756073, 0.052163273096084595, 0.24511733651161194], [-0.7215820550918579, -1.150554895401001, -0.9844927191734314, 0.4111562669277191, -0.1504024863243103, -1.501940369606018, 2.4532387256622314, 0.48208099603652954, 2.8454980850219727, 0.537615180015564, 1.5309549570083618, 1.2951382398605347, -1.8754980564117432, -0.07794728875160217, 1.1895703077316284, 2.3074491024017334, 0.45971137285232544, -0.8068569898605347, 0.3489995300769806, 0.13986383378505707, -0.06697256118059158, 1.9467331171035767, -0.5158557295799255, -0.10702057182788849, 2.4840331077575684, 1.5220285654067993, 2.604074716567993, 1.4766514301300049, 0.7920441627502441, 0.17446504533290863, 2.818467378616333, -0.9194410443305969, 0.23355798423290253, -0.2186696082353592, 1.005813717842102, 3.0030643939971924, -1.377510905265808, -1.504974603652954, -0.23677030205726624, 2.352292776107788, -1.998763918876648, 0.6419187784194946, 0.9702675342559814, -2.2903683185577393, -0.672186553478241, 1.6451470851898193, -2.1866579055786133, -0.5740642547607422, 0.26152268052101135, -0.6414689421653748, 0.10350128263235092, 0.11283711344003677, 1.139829158782959, -0.5267652273178101, -0.9643990397453308, -1.094641089439392, 0.46772971749305725, 0.9627808332443237, -0.10164573043584824, 0.32875505089759827, -1.2516539096832275, 1.5501906871795654, -1.198255181312561, 0.22635884582996368, 1.806300401687622, -0.32622435688972473, -1.6633870601654053, -0.59437495470047, -0.08774078637361526, 0.4314168691635132, -0.2958330810070038, -0.2005162239074707, 0.03949912264943123, -0.20929725468158722, -0.7079241275787354, -0.45609310269355774, -1.3305151462554932, 3.127119302749634, 0.10016638040542603, 2.1998345851898193, 0.9988292455673218, 1.9157427549362183, -0.5397117137908936, 4.199087142944336, -0.49991729855537415, 2.9624078273773193, 0.4196572005748749, -0.6444184184074402, -1.2141810655593872, -2.373690605163574, 0.9171352982521057, -1.062292218208313, -0.14093603193759918, 4.02375602722168, 1.0458753108978271, -0.7958737015724182, -0.9456430673599243, -0.8600999712944031, 3.954897403717041, -0.38358137011528015, 0.7370104789733887, 0.6007260680198669, -0.4494389295578003, 0.48574891686439514, -1.352748155593872, -0.5362303256988525, -0.7075612545013428, -2.947340488433838, -0.6130954027175903, 1.256842017173767, 0.17336603999137878, 1.6401643753051758, 4.2749409675598145, 0.14721308648586273, -0.21539177000522614, 2.1237905025482178, -0.7218365669250488, -0.7320398688316345, 0.6137234568595886, -1.085849404335022, 0.12140975147485733, -1.2775760889053345, -0.006697491277009249, 1.2648334503173828, 4.112997055053711, 1.0742461681365967, 0.6169363260269165, -0.350051611661911], [-0.5669880509376526, 2.0450258255004883, -0.13368655741214752, 0.517543375492096, -2.9190404415130615, -0.37987303733825684, 0.22403687238693237, 0.11581777781248093, 0.7376804947853088, -0.6445255875587463, -1.1780247688293457, 0.25866004824638367, 0.9350641965866089, 0.4056174159049988, 0.8687674403190613, -1.3551487922668457, 0.11502102017402649, -0.14451703429222107, -0.561801552772522, 0.14258600771427155, 0.9544131755828857, 3.5329220294952393, 0.9723604917526245, 0.0955810546875, -1.8242805004119873, -1.8339698314666748, 0.9818446040153503, 1.267361044883728, 0.5259696245193481, 2.3297650814056396, 0.5069428086280823, 1.1458196640014648, -0.14809225499629974, 1.0573347806930542, 1.1858762502670288, -1.3028031587600708, 1.1050183773040771, 1.3284419775009155, -0.46507737040519714, -1.987582802772522, 0.36680540442466736, -0.6653522253036499, 0.4296703040599823, -2.347398281097412, -2.4030961990356445, -1.2453594207763672, 1.0883814096450806, 1.4661997556686401, -0.9552053809165955, -0.8906636834144592, 0.9421932101249695, -1.0990383625030518, -1.3109915256500244, -0.8020667433738708, -0.16995468735694885, -0.40364477038383484, -0.5573293566703796, -1.1006262302398682, 1.1599093675613403, 0.06103154644370079, -0.6318156719207764, 0.9509052038192749, 0.09684349596500397, -0.1779746264219284, -0.5558761954307556, -1.1888319253921509, 2.540989875793457, 0.9061822891235352, -1.699982762336731, -0.2855744957923889, -0.6908683180809021, -0.4679933786392212, 1.28175687789917, 0.13647130131721497, 2.504547595977783, 0.3713764250278473, 0.3017018735408783, 0.37248843908309937, -0.06544878333806992, -0.46290123462677, 1.0328744649887085, 1.2994245290756226, -0.2527863681316376, -1.1035187244415283, 0.16748693585395813, -4.398957252502441, 0.3945040702819824, -0.7741791605949402, 1.6301004886627197, 0.44238078594207764, 2.1058156490325928, -0.7693440318107605, -0.46457579731941223, -0.13762086629867554, -1.4078258275985718, -0.3336150348186493, -1.9787005186080933, -2.7203407287597656, -2.0644726753234863, 0.5202658176422119, -1.458240270614624, 1.559385895729065, 0.3047844171524048, 0.2509303390979767, 0.18451446294784546, 0.12717312574386597, 1.6516125202178955, 2.157895803451538, 0.33914780616760254, -1.2700575590133667, -0.6909137964248657, -0.707949161529541, 1.2879022359848022, -1.3002249002456665, -0.02687773108482361, 0.5279282331466675, -0.1126854345202446, -1.4381035566329956, -0.8047663569450378, -0.03852700814604759, 0.8118656873703003, 0.7287166714668274, -0.6582947969436646, -0.17152699828147888, -1.1054706573486328, -1.8059409856796265, -1.0603547096252441, 0.09784872829914093], [-0.13307064771652222, 3.8096485137939453, -1.5839905738830566, -0.0879293829202652, 1.5776995420455933, -1.889205813407898, 3.200838565826416, 0.3228214979171753, 1.8099920749664307, -0.19062243402004242, -1.2049825191497803, 1.6914105415344238, 0.4153539538383484, 0.39683738350868225, -2.6468279361724854, 2.778841018676758, -0.15204666554927826, -0.7048919796943665, 1.3953274488449097, 0.7695401906967163, 0.8023806810379028, 0.3253936469554901, 0.22641727328300476, 0.7088500261306763, -0.44884270429611206, 0.3506268262863159, -1.150086760520935, -2.313368082046509, 0.13838015496730804, -0.1431908905506134, 1.539540410041809, 1.17291259765625, -1.0942375659942627, 1.3199973106384277, -0.3806750774383545, -2.4015750885009766, 0.7115398049354553, 0.4710833728313446, -0.40051987767219543, 1.7137912511825562, -1.6145820617675781, -1.3330658674240112, -0.741547703742981, -1.0089268684387207, 0.6979934573173523, -0.6380634307861328, 2.5155513286590576, 0.43264102935791016, -0.6316048502922058, 1.625630259513855, -1.8781095743179321, -0.8343431949615479, 1.0136828422546387, 0.13463318347930908, 0.6759491562843323, -1.087639331817627, -0.45315614342689514, 1.1661243438720703, 0.3107466697692871, 1.2033220529556274, 0.6668428778648376, 2.979799270629883, 0.261696457862854, 0.13227972388267517, -0.2960258424282074, -1.3537715673446655, 0.7320348620414734, 0.8058761954307556, 1.7676745653152466, 0.3276400566101074, -0.2223643660545349, -1.4536925554275513, -1.346077561378479, -0.6112043261528015, -2.6480772495269775, -0.36395585536956787, -1.9391307830810547, 1.9280986785888672, -0.9537266492843628, 3.1229984760284424, -1.1801631450653076, 1.9062634706497192, -0.15511995553970337, 2.633899211883545, 0.7333894371986389, 3.8605458736419678, 0.2548449635505676, 0.7155261635780334, 2.037914752960205, 2.1039741039276123, -2.7428085803985596, -1.502451777458191, 0.49091804027557373, -3.5135931968688965, 1.5464242696762085, 0.2429196685552597, 0.09576690196990967, 1.046891450881958, 2.835240602493286, -0.83854079246521, -1.1082433462142944, -0.01794351264834404, 0.19069525599479675, -0.10301031917333603, -1.429245114326477, 0.3627176880836487, -1.4842108488082886, 2.917114496231079, -1.7162809371948242, 1.62087082862854, -0.8510594964027405, 0.521647036075592, -0.3068883419036865, 1.8330806493759155, -1.3396927118301392, 1.3464694023132324, 0.14729079604148865, -0.830525279045105, -1.3573626279830933, 1.3539842367172241, -1.4345340728759766, 1.026268720626831, 0.8908671140670776, -0.9657935500144958, 1.3102443218231201, 0.2855238914489746, -1.6207650899887085, -0.7145369648933411], [-0.6416396498680115, -0.2651817798614502, 1.1821904182434082, -0.007601731922477484, -1.5705890655517578, 0.3623141646385193, -0.3280426859855652, -0.3045521080493927, 1.7166095972061157, 0.11399442702531815, -0.5385848879814148, 1.9463961124420166, -2.0156521797180176, 0.1608920395374298, -3.6357674598693848, -1.2825791835784912, 0.6561640501022339, 0.6926775574684143, 0.8521658778190613, 0.37066447734832764, -0.04872024431824684, -2.252322196960449, -1.0090618133544922, 0.8600777983665466, -0.9872976541519165, 2.488234043121338, 0.48108983039855957, -0.14134013652801514, 0.3884253203868866, 0.28156670928001404, -1.89622962474823, -0.7640777826309204, -1.1137194633483887, -0.38092875480651855, 1.0273948907852173, -0.6624732613563538, -1.6366628408432007, 2.325352430343628, -0.00429189670830965, 0.057206958532333374, -0.18864676356315613, 1.2305659055709839, 0.37014034390449524, -1.1871874332427979, -0.6867104768753052, 0.6762828230857849, 0.1261981725692749, 0.553680956363678, -0.7724564671516418, 0.3468911051750183, -1.3454340696334839, 0.4857109785079956, -2.9087891578674316, 0.020179666578769684, 0.7836272120475769, 0.6351203918457031, 0.812620222568512, -0.3606337606906891, -1.0744831562042236, 0.010810491628944874, -1.873247742652893, 2.3445944786071777, -0.29307857155799866, -0.3702918291091919, 0.7823712229728699, -0.6673558950424194, -0.7356160879135132, -0.5731476545333862, 0.058827295899391174, 2.0666635036468506, 1.1951571702957153, 2.1649749279022217, -0.869645357131958, 0.7712836265563965, 1.66201651096344, 0.6935072541236877, -2.2269256114959717, 0.895556628704071, -0.5400630831718445, -0.1312132179737091, 0.30735263228416443, -1.5555648803710938, 0.669448971748352, -1.8857141733169556, -0.5633227825164795, 2.8794922828674316, 0.469586044549942, -2.0564496517181396, 1.5483721494674683, 2.2987074851989746, 1.4426954984664917, 0.4852558374404907, -0.3235844373703003, 0.26908940076828003, -1.1711783409118652, -2.002885580062866, 1.043373703956604, 2.8208870887756348, -3.185401439666748, -0.3111671209335327, 0.9587137699127197, -0.5687682032585144, 0.4148665964603424, 0.9288942217826843, 1.069494605064392, 0.25902000069618225, 0.04140922799706459, -0.31082335114479065, -0.47162073850631714, -0.2640751600265503, -2.9673500061035156, -0.3532702922821045, 2.487206220626831, -1.4932031631469727, -1.2572181224822998, 2.3442325592041016, -0.7894353866577148, 1.9509018659591675, 0.584233283996582, 3.2906012535095215, 1.5879452228546143, -0.7011070251464844, 0.11612503230571747, 0.4947965145111084, -1.761094570159912, -0.85555100440979, 1.2536859512329102, 0.3165450692176819], [1.8970015048980713, 0.16550903022289276, 1.664450764656067, 0.1638217270374298, -1.9703391790390015, -0.5431332588195801, -0.16621997952461243, -0.825693666934967, 1.3072469234466553, 1.145849585533142, -0.45719265937805176, 0.8466745018959045, 0.3927440345287323, -0.5138266086578369, -3.2686843872070312, 1.4954252243041992, 0.3519468903541565, -0.10665980726480484, -0.8558089137077332, -1.595402479171753, -0.7022265195846558, 0.845378041267395, 0.9968007802963257, -0.8306395411491394, -0.60221928358078, 3.20534610748291, -1.3775358200073242, -2.2875800132751465, 0.9413042068481445, 0.9186205863952637, 2.2668540477752686, -1.5121370553970337, 1.7591862678527832, 3.0902833938598633, -1.1073564291000366, -3.329055070877075, 0.20981460809707642, 0.25069379806518555, 1.5710071325302124, -1.849669098854065, -0.5596553087234497, -0.9859561324119568, -0.8217968940734863, -1.4802109003067017, 1.294420838356018, 1.6914311647415161, 1.4491548538208008, 1.460705041885376, -0.3870164155960083, 0.920207679271698, -1.4526997804641724, -1.1117215156555176, -2.299917221069336, 1.114775538444519, -1.1542103290557861, 0.715880811214447, -0.0875215083360672, -0.22545045614242554, -0.07365886121988297, -0.06956999748945236, -2.3454015254974365, 1.5842472314834595, 0.675371527671814, -0.04899931326508522, -0.6397895216941833, -1.3254941701889038, -0.17649270594120026, -0.6424950361251831, 0.9412693381309509, 0.8262670636177063, -0.32020246982574463, -1.5632133483886719, 1.5963449478149414, -0.3820473849773407, 1.6810581684112549, 0.6502536535263062, 2.8681983947753906, 2.61358904838562, -0.6395906209945679, -1.1678881645202637, 1.7410063743591309, -0.4629037082195282, -0.24945485591888428, 3.6105589866638184, -1.0850273370742798, -4.038217544555664, -1.0598560571670532, 1.3470115661621094, -0.269165575504303, -0.7222986817359924, 1.4388689994812012, 1.8214370012283325, 0.02999151684343815, -2.3828916549682617, 1.7577885389328003, -0.35311776399612427, -0.4240044355392456, 2.164750099182129, -1.0476125478744507, -0.6920819878578186, -1.5422258377075195, 2.7646946907043457, -0.26527470350265503, -0.3555759787559509, 0.8335773348808289, 0.13604745268821716, -0.6930879950523376, 1.0383697748184204, -0.7939028143882751, 0.9111461639404297, 0.559662401676178, 1.4665520191192627, -0.2666335701942444, 0.7647769451141357, 0.19535961747169495, 0.017934726551175117, 0.49007195234298706, -1.126243233680725, -0.8319144248962402, 0.46312564611434937, 1.019989013671875, 0.779948890209198, 0.6544760465621948, -0.08840557187795639, -2.916775941848755, -0.7446764707565308, -1.2072757482528687, -0.6993197798728943], [-0.8388919830322266, -2.072221517562866, 0.6869829297065735, 0.47064971923828125, 1.3566595315933228, -1.2919639348983765, 2.6790332794189453, -0.8108569979667664, 0.22809672355651855, -0.8680055737495422, -0.9390534162521362, -1.374133586883545, -1.1275416612625122, 0.12333668768405914, -0.5348489284515381, 0.7158841490745544, -0.3319697976112366, -0.4828678369522095, 0.9201693534851074, 0.49873778223991394, -0.36116892099380493, 3.2024078369140625, 0.03086940385401249, -0.336436003446579, -2.133679151535034, 2.5279600620269775, -1.0650213956832886, 0.8155333995819092, 0.07579623907804489, 1.8089581727981567, 0.3567834794521332, 0.1998164802789688, 2.14104962348938, 1.651490569114685, 0.8998040556907654, -0.8214142918586731, -0.053875841200351715, -0.6806681156158447, -0.33601951599121094, 2.916079044342041, -0.9230501055717468, -0.3243105709552765, -1.0187935829162598, 1.2689425945281982, -1.9998449087142944, 2.1493723392486572, -0.8936449885368347, 0.24178586900234222, -0.8304857611656189, 0.8933345079421997, 1.3542128801345825, 1.0120272636413574, -3.585742473602295, -0.22323675453662872, -0.2475178837776184, 0.8338865637779236, -0.5841200351715088, 1.4309630393981934, 0.05272383987903595, -0.27447035908699036, 1.009750247001648, -1.2583907842636108, 0.23751749098300934, -0.2525385022163391, -1.18889582157135, 0.5304756760597229, 1.1958242654800415, 0.5549327731132507, 0.971415638923645, 0.7221892476081848, 0.426859974861145, -2.522655963897705, -1.2788536548614502, -0.5616006255149841, 0.9818031787872314, -1.0025843381881714, 1.7094223499298096, -1.7110443115234375, -0.006032274570316076, -0.8461810946464539, 1.0339703559875488, 0.7580981850624084, 0.45517781376838684, 3.0924134254455566, 0.3108515441417694, -0.29222583770751953, 0.5902993679046631, -1.1184722185134888, -0.3415603041648865, -1.7398635149002075, -1.2588516473770142, 2.120213270187378, 0.1294563114643097, 0.7055525183677673, -2.2556419372558594, -1.2804399728775024, -1.18110990524292, 2.073545455932617, -1.243947982788086, 0.5465017557144165, -0.3675468862056732, 0.19839510321617126, -0.018608083948493004, 0.755423903465271, -0.41042718291282654, -0.8001143932342529, -0.37480804324150085, 3.3260278701782227, 1.452573299407959, 0.9247989058494568, 0.22102966904640198, -1.3426378965377808, -1.7382433414459229, 1.063838005065918, 0.6403780579566956, -0.8760890960693359, 0.25610145926475525, 2.0296998023986816, -0.1837732344865799, 3.8885388374328613, 0.49671268463134766, -0.2264808863401413, -0.058733727782964706, -0.004713652189821005, 2.1787192821502686, -1.6140681505203247, -1.0468262434005737, -0.039860956370830536], [0.35728776454925537, -1.8933205604553223, 0.3014185428619385, 0.14778272807598114, 0.4449356496334076, 1.2150990962982178, 2.8278777599334717, -1.3167866468429565, 0.1966928392648697, -0.03101426735520363, 1.2569448947906494, 1.5520764589309692, -2.2011008262634277, 0.5558445453643799, -1.8527324199676514, 0.8585039973258972, 0.7071692943572998, -0.3251073658466339, 0.8764052987098694, 0.05928673595190048, -1.0761295557022095, -3.4104268550872803, -0.7074840068817139, 0.27887991070747375, 1.6329615116119385, 2.079716920852661, -1.3213516473770142, -2.360433340072632, 0.5542227625846863, 1.7230582237243652, -2.026676893234253, -0.13734006881713867, -1.811890959739685, -2.632833242416382, -0.4902265965938568, 1.7689045667648315, 1.752874493598938, 1.9586528539657593, -0.8108398914337158, -1.437722086906433, -0.35791507363319397, -0.359285444021225, 0.07700739800930023, 1.8499929904937744, -1.7776097059249878, -1.6592174768447876, -0.7878615260124207, -0.8302347660064697, 0.31102824211120605, 1.1085293292999268, 1.5499790906906128, 0.29727908968925476, 3.083894729614258, 1.2396198511123657, 0.7773714661598206, -3.14027738571167, 0.19362977147102356, -1.304652452468872, 0.2564948499202728, 0.6380900740623474, 1.7065412998199463, 1.0452172756195068, 1.1574147939682007, 0.5110306739807129, -0.9915583729743958, 1.0682157278060913, 2.1415865421295166, -0.5891390442848206, 1.5488450527191162, -2.5026843547821045, -0.1707385629415512, -1.7554540634155273, -0.5735584497451782, -0.23319000005722046, -2.2394683361053467, 0.5926632881164551, 1.0778717994689941, -0.3879426419734955, 0.6805399656295776, 0.11130952090024948, -0.3755527138710022, -0.8438625335693359, 0.5000559687614441, 2.7793920040130615, -0.6068674325942993, -2.4172616004943848, 0.15332962572574615, -0.4754094183444977, 2.7555932998657227, 1.1222172975540161, -1.1922550201416016, 0.14925362169742584, -0.3016321361064911, 3.933133602142334, -1.674834966659546, 1.078934907913208, -1.988795518875122, 1.230675458908081, -3.8544905185699463, -0.4470999538898468, -0.9382266402244568, 1.9431530237197876, 0.3435943126678467, -0.6541480422019958, -0.3618778586387634, 0.2340906411409378, -1.5026026964187622, 1.7139549255371094, -1.1137793064117432, -1.1514917612075806, -2.3157787322998047, -0.8234216570854187, -0.3623964488506317, -0.7488058805465698, 1.4229669570922852, 1.6356408596038818, -0.9887347221374512, 0.9121212363243103, -0.6956537961959839, -1.2684377431869507, 0.40093761682510376, -0.7983195781707764, 0.0009134364081546664, -0.44240662455558777, 3.2484421730041504, -1.05409836769104, 1.7275315523147583, -0.564349353313446], [-0.877651035785675, 1.1479657888412476, 0.990652322769165, 0.06265129148960114, 1.0939600467681885, -0.04191380366683006, 1.2262449264526367, -1.1026443243026733, -0.62474524974823, -1.7058535814285278, 0.7655324339866638, -1.7828773260116577, 3.242668628692627, -0.3299154043197632, -0.8733769655227661, -3.0432300567626953, 0.37772080302238464, -0.4414578676223755, -0.8385117053985596, -0.8277647495269775, 0.6327819228172302, -2.878732204437256, 0.322744756937027, 0.013711721636354923, 0.1532672792673111, 0.9243000745773315, 1.4080891609191895, -0.6536774039268494, -0.03995225951075554, -0.6046142578125, 0.5793780088424683, -0.20747415721416473, -0.14944255352020264, -0.5526541471481323, 0.5648235082626343, 0.4808943271636963, -0.4014439582824707, -1.2167415618896484, -0.5791912078857422, -1.1110796928405762, -0.2414642721414566, 0.376791775226593, 0.6289620995521545, -0.5555237531661987, 1.5457262992858887, 1.8949936628341675, -0.23065726459026337, 0.3669341504573822, -0.0045438664965331554, 0.6091731190681458, 0.9123802781105042, -0.7074000835418701, -1.121964454650879, -0.47174638509750366, -1.1362364292144775, 0.5619527697563171, -0.38596203923225403, 0.882818341255188, -1.16581130027771, 0.8524777889251709, 1.1177510023117065, 1.145133376121521, -0.5722111463546753, -0.052851349115371704, -0.8197774887084961, 0.4736468195915222, -1.3558661937713623, -0.02875559777021408, -1.6319975852966309, 0.05148166045546532, -0.5353594422340393, 0.035592950880527496, -0.0746273621916771, 0.31060296297073364, -2.6116089820861816, 1.0424094200134277, -0.7737712264060974, -2.39424467086792, 0.633721113204956, -0.38665589690208435, 0.40600648522377014, 1.8925533294677734, 0.218430295586586, -2.208930492401123, -0.4532851576805115, -1.2046222686767578, 0.6783856153488159, 2.5312259197235107, 1.9971206188201904, -2.5670547485351562, -1.301862359046936, 1.4972387552261353, 0.1822153925895691, 2.2038803100585938, -0.3847271800041199, -0.13307340443134308, -1.216206669807434, -1.5712711811065674, 2.2251381874084473, 0.6257087588310242, -1.244899868965149, 0.7858742475509644, -0.07485471665859222, -0.17515791952610016, 0.7111251950263977, 0.530888557434082, -0.28999924659729004, -2.862647533416748, 0.2715568244457245, -0.3232407569885254, 0.6175269484519958, 0.8295636773109436, -1.7409194707870483, 0.9264786839485168, 1.0092207193374634, 0.1601601541042328, -1.4516315460205078, -1.4339147806167603, -0.17429088056087494, 0.41176146268844604, -1.0461575984954834, 0.6758482456207275, 0.8377552628517151, -0.6971234083175659, -0.4681449234485626, 0.995984673500061, 0.6647207736968994, 0.21827958524227142], [0.3757907450199127, 0.37088140845298767, 0.7012295126914978, -0.2725764811038971, 0.48508232831954956, 2.294856071472168, -1.6626890897750854, -2.418071746826172, 0.002720921067520976, -0.7597751021385193, -0.461463987827301, -1.121798038482666, 0.7124431729316711, -0.0035482700914144516, -1.7546157836914062, 0.5039563179016113, 0.5890970230102539, 0.0617363266646862, 1.4738081693649292, -0.9371458292007446, 0.831691563129425, 1.6045703887939453, 1.110190987586975, 0.9315565824508667, -1.8776116371154785, 1.5115587711334229, -0.1647930145263672, -0.4922548234462738, -0.2142186015844345, -1.8636468648910522, 2.7621352672576904, -1.4522563219070435, 1.4646495580673218, 0.7243891954421997, 0.07716145366430283, 1.726246953010559, 0.40905556082725525, 1.5532032251358032, -0.39961788058280945, 3.6508944034576416, 1.1751400232315063, 0.8382918238639832, 0.8445947170257568, -1.4638004302978516, 0.02161264419555664, -1.3390650749206543, -2.391502857208252, 2.110710620880127, 0.6098087430000305, -0.8276333212852478, 1.1604844331741333, 1.1192289590835571, 2.9708480834960938, 0.044272489845752716, -0.6101822853088379, -3.290475845336914, -1.0316756963729858, -0.1980123668909073, 0.2988463044166565, -0.03369329869747162, 2.185709238052368, 0.35370105504989624, -0.16891899704933167, -0.03668542206287384, -0.307780385017395, 0.90748131275177, 1.9877417087554932, 0.015390034765005112, 1.8510876893997192, 1.5798250436782837, -0.29138725996017456, -0.8943214416503906, 1.4227943420410156, 0.6130580902099609, 2.7037665843963623, -0.8481852412223816, 1.4579105377197266, -1.1119849681854248, 0.16292554140090942, 0.533095121383667, -2.269733428955078, 0.9810981154441833, 0.0007520635263063014, -2.304029703140259, 1.2081859111785889, 1.4553065299987793, 0.6184899210929871, 0.7617902159690857, 0.08832809329032898, 2.1731088161468506, 2.5732622146606445, -2.4453911781311035, -0.1865738481283188, -2.0899031162261963, 0.5809133648872375, 1.3744148015975952, -0.41293755173683167, 2.3116657733917236, 2.298771381378174, -0.5865054726600647, -0.10408036410808563, -0.2561183273792267, 0.19464275240898132, -1.9843357801437378, -0.9357202053070068, -0.7885348200798035, 1.1335270404815674, 2.249297857284546, 1.6328682899475098, -2.398179292678833, 0.5863916277885437, 0.9875455498695374, 1.1940597295761108, 1.828532099723816, 1.3399498462677002, 0.9154437780380249, 0.7154460549354553, 1.457284688949585, 0.34111955761909485, -1.4904401302337646, 1.634743094444275, -0.3481285572052002, 0.37907448410987854, 0.2011338770389557, 1.7608445882797241, 0.3060968816280365, -0.5400096774101257, -0.42869579792022705], [0.6195589303970337, -2.158888816833496, 0.6019530892372131, 0.3545965254306793, -1.6962857246398926, -0.32474851608276367, -0.10431713610887527, 0.04437869414687157, 2.9664502143859863, -1.0450609922409058, 0.49059998989105225, -1.6438186168670654, 3.410565137863159, 0.29237499833106995, -3.9749679565429688, 0.8312861323356628, 0.1702670305967331, 0.6706333160400391, 1.282650351524353, -0.2965731620788574, 0.8173671364784241, 3.4224355220794678, 0.7189791202545166, -0.5196185111999512, 0.7585272789001465, -3.7400996685028076, 0.165280282497406, 2.0728671550750732, 0.7435231804847717, -0.9646589159965515, 0.9425990581512451, -0.3511897623538971, 1.3689312934875488, -4.2971367835998535, 0.5920259952545166, -2.3757028579711914, -1.38418447971344, -1.0196096897125244, 1.5362578630447388, -3.5628037452697754, 1.117881178855896, 0.9839146137237549, -1.2480239868164062, 2.088869571685791, -0.24803636968135834, -1.5877619981765747, -0.9879359602928162, -0.07037371397018433, -1.347167730331421, -0.5215745568275452, -1.0854147672653198, 0.37893855571746826, -1.6083494424819946, 0.9503372311592102, -0.15264694392681122, 1.1997112035751343, -0.5126374363899231, 0.5970524549484253, 0.6206052899360657, -0.734886646270752, 1.8253958225250244, 1.3485047817230225, -0.48009684681892395, -0.03948316350579262, -0.3455788195133209, 0.5227927565574646, -1.1508573293685913, -0.43224823474884033, 0.23148037493228912, -0.05545469745993614, 0.22599321603775024, 0.7744747996330261, -0.9254083633422852, -0.558843731880188, 2.1532270908355713, -1.0077401399612427, 1.5040785074234009, 2.513617515563965, -1.1106963157653809, 2.5980615615844727, 1.4792917966842651, 0.5468778014183044, -0.0562375970184803, -2.4311115741729736, 0.9676404595375061, 4.161133289337158, -0.8971148133277893, -1.8643118143081665, -1.9723411798477173, -1.5776323080062866, -1.8636683225631714, 0.06121900677680969, -0.4247027337551117, -1.0999653339385986, 1.2895002365112305, 0.42773234844207764, -0.9830348491668701, -1.6855875253677368, 1.755281925201416, 0.18736056983470917, 0.9183546900749207, 0.21291249990463257, 0.19754590094089508, 0.07266243547201157, -0.0599978081882, -0.3628491759300232, 1.2114959955215454, 2.459521770477295, 0.7375565767288208, -0.25968027114868164, 1.8027430772781372, 1.3278909921646118, 1.0816181898117065, 2.1881392002105713, 1.206251859664917, -1.6374746561050415, 0.600297212600708, -0.13118381798267365, -1.2376840114593506, 1.5513807535171509, 0.6494624614715576, 0.060808271169662476, 0.6795621514320374, 0.05204300209879875, 2.3653688430786133, 1.7902660369873047, 1.5613772869110107, 0.20896297693252563], [-0.9042937159538269, -0.5995545983314514, -1.4039970636367798, -0.7249088287353516, 1.6757570505142212, -1.8340502977371216, -1.7667204141616821, -1.2632670402526855, 1.824314832687378, -0.8256205916404724, -0.8105621933937073, 0.6448683738708496, 3.351835012435913, -0.5503548979759216, -0.31939372420310974, -0.77442866563797, -0.2429409623146057, -0.44328540563583374, -1.3283696174621582, 0.08549109846353531, -0.028540896251797676, 0.3289738893508911, -0.587878942489624, -0.5354669690132141, -0.8842548131942749, 0.550260603427887, 1.9378283023834229, -0.8585872054100037, 0.05168827995657921, 0.8575270175933838, 1.1099642515182495, 1.5839412212371826, 2.784365653991699, 1.862343192100525, -0.10363710671663284, 1.0038832426071167, 0.9378368258476257, 0.4840843081474304, 1.2992403507232666, -1.165819525718689, -0.9709361791610718, -0.05857149139046669, -0.1264345943927765, -0.39272087812423706, -0.5409263968467712, -0.036207690834999084, -1.2668486833572388, -0.13074102997779846, 0.046107564121484756, 1.214552640914917, 0.15868639945983887, 0.49892276525497437, 3.2670629024505615, -0.3518538773059845, -1.2556105852127075, 0.9487324953079224, -0.1874510645866394, 1.4478646516799927, -0.8920018672943115, -0.6670013666152954, 1.153327465057373, 3.510958194732666, -0.5019594430923462, -0.485914945602417, 0.35434064269065857, -0.505169689655304, -1.9466608762741089, -0.4740831255912781, 1.818922519683838, -2.407951593399048, -0.8481258749961853, 1.0661243200302124, -0.3415902554988861, -0.7646968960762024, 0.3901920020580292, 1.094513177871704, -2.3837060928344727, 1.6154669523239136, -0.6680794954299927, 2.3511459827423096, 1.3589118719100952, -0.7598198056221008, 0.41534027457237244, 0.01446529384702444, -0.4690353274345398, 3.444558620452881, 0.36174842715263367, -0.7823281288146973, -1.2148460149765015, 0.6918556690216064, -2.9463822841644287, 0.4539357125759125, 0.26365599036216736, -2.204423189163208, 1.8220213651657104, -0.2647177278995514, 1.6689794063568115, 1.7697808742523193, 3.4349327087402344, 0.11568742245435715, 0.1269848644733429, -1.3987864255905151, 0.18580827116966248, 0.32398170232772827, 0.0481795109808445, 0.43179064989089966, -0.4312792718410492, 3.0658066272735596, -0.4713212847709656, 0.7497565746307373, 1.8102710247039795, -1.2646104097366333, -3.346670389175415, -0.9217743277549744, -1.3455150127410889, -0.16784906387329102, 0.5880438089370728, 2.6429221630096436, -0.25770917534828186, 2.0536415576934814, -1.5017406940460205, -0.7326735258102417, 0.6861038208007812, 0.059063270688056946, -0.8471600413322449, 2.484485387802124, -0.97037273645401, -0.35737618803977966], [0.8239898681640625, 1.633797526359558, -0.11188329011201859, -0.8102031946182251, 0.6098605394363403, 1.2178105115890503, 3.6121654510498047, 0.5390515923500061, -2.3478188514709473, 1.3776116371154785, 0.5184152126312256, -1.8747336864471436, 2.153580665588379, -0.3596382439136505, 2.8390254974365234, 0.15570874512195587, 0.6638177633285522, -0.09859199821949005, -1.603001594543457, -0.6998549699783325, -0.508965253829956, -2.9464471340179443, -0.16180577874183655, -0.22429895401000977, -0.861699640750885, 3.2982749938964844, 0.7245891094207764, -1.391815423965454, 0.01344448421150446, -0.4913060665130615, -0.7889671921730042, 0.9773334264755249, -1.518958568572998, 3.371861219406128, 0.3897015452384949, -3.203416585922241, 0.5080838799476624, -0.9958317279815674, 1.0577569007873535, 0.6998575925827026, -0.9459805488586426, -0.5804596543312073, 0.40730950236320496, -1.0028749704360962, 2.1708850860595703, -1.0262808799743652, 1.0818939208984375, -0.12581223249435425, 0.1614043265581131, -1.2986907958984375, -0.09233070909976959, -0.20101767778396606, -2.4355928897857666, 0.6704133749008179, 1.1240804195404053, -1.980330228805542, 0.6212589144706726, -1.6722209453582764, 0.2711764872074127, 0.3206689655780792, -0.7038087844848633, -0.8027017116546631, 0.6692854762077332, 0.5236278772354126, -1.1410514116287231, -0.6737651824951172, -1.2705578804016113, 0.1293366253376007, -1.065726399421692, 0.9845790266990662, -0.8236268162727356, -1.5254480838775635, -0.5361616015434265, -0.4100906550884247, -1.0088229179382324, -0.09361843019723892, 1.4023758172988892, 0.873478353023529, -0.06604552268981934, -0.5011405944824219, -0.9506046772003174, 2.789245843887329, -0.22229836881160736, 0.02051834762096405, -0.15920044481754303, -3.9071788787841797, 0.12185051292181015, 1.6427531242370605, -0.12891004979610443, -1.2946910858154297, -1.0043144226074219, -1.8326407670974731, 0.18651363253593445, 0.6608933806419373, -0.8169268369674683, -0.5184171199798584, 1.1590912342071533, -1.2512379884719849, 0.17214594781398773, -0.015866141766309738, 0.18391722440719604, -1.6708917617797852, -0.40328848361968994, -1.4485955238342285, 1.1927282810211182, -0.1472243070602417, -0.5020778179168701, 0.004416077863425016, -1.4360182285308838, 0.06523730605840683, -1.0623141527175903, 1.2348893880844116, -2.6208882331848145, -0.7411746978759766, -1.2986847162246704, -1.6148102283477783, -0.31548580527305603, -1.7484818696975708, -0.0006078602164052427, 1.3014675378799438, -0.4099312424659729, -0.2694772779941559, 0.10802993178367615, -1.0782735347747803, -1.7162179946899414, 1.8402944803237915, 0.42257198691368103, -0.39613088965415955], [-0.4844672977924347, 2.531003713607788, -0.09905688464641571, -0.038759924471378326, -1.7989299297332764, 1.0283440351486206, -2.8041961193084717, -1.469998836517334, -2.573070764541626, -0.4111259877681732, -0.3061456084251404, -0.48163554072380066, 1.2439967393875122, -0.145492285490036, -2.023836135864258, -0.002953734016045928, 0.6046016812324524, 0.5808651447296143, -1.1391140222549438, 0.40968987345695496, -1.1840590238571167, -2.0669140815734863, 0.3572765290737152, -0.7382347583770752, -0.8935399651527405, -1.7213915586471558, 1.5109715461730957, 0.783639669418335, 0.8691083788871765, 2.31299090385437, -1.6831265687942505, -0.8141767978668213, -2.0237741470336914, -0.5045246481895447, 0.8131527900695801, -1.064563274383545, -0.3164612650871277, 1.1897084712982178, -0.4081692099571228, -1.8035157918930054, -1.3127655982971191, 1.2281649112701416, 0.2429419606924057, 1.7925955057144165, -1.4828739166259766, -0.15963032841682434, -0.8585753440856934, -0.4904516935348511, -1.1568259000778198, 0.03956811875104904, 0.7948368191719055, -0.11520148813724518, -0.9974841475486755, -0.6360341310501099, -1.4135069847106934, 1.1642687320709229, -0.4755346179008484, 0.2261008471250534, 0.9653087258338928, 0.776735782623291, 1.3030880689620972, 1.9143329858779907, -0.9531881809234619, -0.44714808464050293, -0.4156770706176758, -0.14396852254867554, -1.628774881362915, -0.09309791773557663, 0.46060606837272644, 1.794020175933838, -1.0557037591934204, 0.5500105619430542, -1.0818918943405151, 0.46696773171424866, 1.4740084409713745, -1.0298258066177368, 1.474959135055542, -1.500022292137146, 0.7134562730789185, 2.682016134262085, 1.6909492015838623, -0.2389746755361557, -0.4113863408565521, 1.5028437376022339, 0.3498513698577881, -0.7286353707313538, -0.34358078241348267, 0.8131868243217468, 2.2592356204986572, 1.3490873575210571, -0.7056585550308228, 2.2411413192749023, -0.23084048926830292, 0.7880945801734924, -1.701401710510254, 1.6410927772521973, 0.69290691614151, 0.3501695692539215, 2.610055685043335, -0.3078303039073944, 0.14080844819545746, -1.0330870151519775, 0.5071561336517334, -0.8434076309204102, 0.20178616046905518, -0.1543562114238739, 0.6233639121055603, 1.599072813987732, 0.9589767456054688, 0.1774420291185379, -0.714073657989502, 0.011036522686481476, -2.6898813247680664, 1.6014224290847778, -0.8676870465278625, -1.001016616821289, -0.10347665101289749, -3.172579050064087, -0.1920192837715149, -2.42156720161438, 0.8300480246543884, 0.3700903654098511, 0.4848076105117798, -1.0365790128707886, -2.7382190227508545, -1.3916394710540771, 0.12727230787277222, -0.10836320370435715], [1.0005613565444946, -1.6900007724761963, -1.402772068977356, 0.00833378080278635, 1.6214221715927124, -1.1990629434585571, 3.3477118015289307, -0.46781355142593384, -2.7675745487213135, -0.2223385125398636, -0.578874409198761, -1.5297688245773315, -1.3713597059249878, 0.4222540259361267, -2.1163330078125, -1.222593069076538, -0.02276243455708027, -1.3213163614273071, 0.7451888918876648, -0.6493470072746277, 0.3620898127555847, 0.07882678508758545, 0.550441324710846, 0.8845914006233215, 0.49681344628334045, 3.3439040184020996, 0.34797292947769165, -1.9289501905441284, 0.7943199276924133, 1.066180944442749, 0.44225627183914185, 0.6869690418243408, 1.0972009897232056, -0.43002572655677795, 1.4312434196472168, 2.090808391571045, 1.4096074104309082, -1.0651261806488037, -0.6288772225379944, 2.070857286453247, 0.053770847618579865, -1.313790202140808, 0.5782635807991028, -0.6290876269340515, 1.689775824546814, -0.20863273739814758, -1.176851749420166, -0.9320115447044373, 0.8430430293083191, 0.40047016739845276, -1.30278742313385, 0.37715962529182434, 3.501274347305298, -1.1929149627685547, -0.8356989622116089, 2.0244390964508057, 0.1961822658777237, 0.3472154140472412, 1.0680378675460815, 0.11896292865276337, -0.8838452100753784, -2.498713493347168, 0.18183021247386932, -0.02056308090686798, -0.8234039545059204, -1.0973191261291504, -1.7337617874145508, 0.2679668962955475, -0.2646075487136841, -0.824740469455719, -0.8571207523345947, -1.5649330615997314, -1.672698736190796, 0.3160342872142792, -0.4659918248653412, 1.1355080604553223, -1.9063528776168823, 0.06794389337301254, -0.6856591105461121, 0.8839580416679382, -0.8049117922782898, -1.1086602210998535, 0.5139174461364746, -1.5935002565383911, -0.16445292532444, 0.47720998525619507, 0.7967705130577087, -1.6218371391296387, 0.5416396856307983, -2.2688803672790527, -0.6987622976303101, 0.7712961435317993, -0.24562330543994904, 0.21271705627441406, -2.4889585971832275, -0.5646133422851562, 0.5807310938835144, -1.830143928527832, -2.8451778888702393, -0.3274596631526947, 0.8809894919395447, -2.1894400119781494, 0.22942861914634705, -0.7767086625099182, 0.2550460398197174, 0.6390144228935242, 0.768383800983429, 1.4864505529403687, 0.28600072860717773, -1.807840347290039, -0.4777957499027252, -1.2954856157302856, 0.815929114818573, 1.443764567375183, -1.5129963159561157, 1.267227053642273, 0.31084108352661133, -1.1039232015609741, -0.9212043285369873, -1.6736423969268799, -0.27735036611557007, -0.8392642140388489, 0.40594586730003357, -0.06680107116699219, 2.3477368354797363, -1.7883574962615967, -1.1165528297424316, -0.12398066371679306], [-0.8979249000549316, 1.373172640800476, -0.04404836148023605, 0.484321266412735, 0.3058909475803375, -0.8268696665763855, 0.41816577315330505, 1.51676344871521, 2.5658910274505615, -1.3989008665084839, -0.4220491945743561, -2.6089768409729004, -2.482635736465454, 0.18616116046905518, 3.981262445449829, 1.5573111772537231, 0.6948628425598145, -0.3890528380870819, -0.9780799150466919, -0.574012815952301, -0.049942053854465485, 2.326641798019409, -1.3690168857574463, -0.3597814440727234, 1.4115277528762817, -0.9442230463027954, -2.0123987197875977, 2.12103271484375, 0.8498390316963196, -1.0397449731826782, 1.0628818273544312, -1.3081986904144287, -1.104846477508545, -3.1656453609466553, 1.4744027853012085, 0.4952707886695862, -0.7804204821586609, 1.405271053314209, 1.5612938404083252, -1.2999461889266968, -1.4791488647460938, 0.22771243751049042, -1.1093634366989136, -0.7908348441123962, 2.0783371925354004, 1.3321290016174316, -1.1168066263198853, -0.12990298867225647, 0.15438663959503174, -0.7077577710151672, 0.932348906993866, 0.26336121559143066, 1.7803014516830444, 0.6941628456115723, 1.5958577394485474, 2.372753858566284, 0.40944936871528625, -1.0904386043548584, 1.571618914604187, -0.3312285542488098, -1.658667802810669, 0.2615518569946289, -0.1961129903793335, -0.4899963140487671, 0.9952772259712219, -0.08714500814676285, 0.13096538186073303, -0.36622196435928345, -2.409066677093506, 0.8326331973075867, 0.7329854369163513, 1.3574336767196655, -0.03888508304953575, -0.5037222504615784, -0.09369797259569168, 0.9065106511116028, -0.30319708585739136, -1.2806881666183472, 0.6911113262176514, -1.438273549079895, -1.2227085828781128, 1.1763685941696167, 0.721937894821167, 1.1001708507537842, 0.5777782201766968, 0.8884579539299011, 0.07331832498311996, 1.1102006435394287, 0.622490406036377, 1.9566391706466675, 2.5372965335845947, -0.07093933969736099, 0.7185407280921936, -2.15842604637146, 0.12055990099906921, 0.6322056651115417, 0.26984575390815735, 0.0720418319106102, -1.7019928693771362, 0.32783353328704834, 1.5964722633361816, -0.7737935781478882, -0.03761177510023117, 0.09983726590871811, -0.7226964831352234, -0.5932214260101318, 0.42712050676345825, -3.042564868927002, 1.407360315322876, 1.4431297779083252, -0.6016265749931335, -0.09614693373441696, 2.5627121925354004, 2.1894450187683105, 0.944683849811554, 0.8160222768783569, -0.7952666878700256, 1.4624111652374268, 1.1365554332733154, 2.651879072189331, -0.1569661647081375, 1.3893193006515503, 0.20425370335578918, 0.49843093752861023, -0.8906574249267578, -2.0389275550842285, 0.24723637104034424, -0.3168666362762451], [1.224485158920288, 1.390663743019104, -0.882755696773529, -0.5422039031982422, -0.5040998458862305, 1.2844661474227905, 4.076830863952637, -0.8341279625892639, 0.6868070363998413, 0.8947684168815613, 1.178046464920044, -1.0503484010696411, 2.8649795055389404, -0.18648536503314972, 2.078756809234619, -0.7099670767784119, -0.15449538826942444, -0.5323490500450134, -0.7508466839790344, -0.40727898478507996, -1.123249888420105, -3.2589805126190186, 1.6100337505340576, -0.06135871633887291, 1.0332086086273193, -2.908559560775757, -2.77337908744812, 0.47960197925567627, 0.19805434346199036, -1.3405187129974365, 2.09744930267334, -1.0688564777374268, 0.5691218376159668, -0.05797110125422478, 0.3300658166408539, 0.7870107293128967, -1.1917979717254639, 2.150513172149658, 1.1761512756347656, -0.5523006319999695, -0.5034326314926147, -0.6527639031410217, 0.9814930558204651, 0.2542578876018524, 0.7348106503486633, 1.6462723016738892, -1.773389458656311, 1.3519707918167114, -0.4248202443122864, 0.6419956684112549, -0.3425004184246063, -0.4113890826702118, -0.7736843228340149, -1.1934175491333008, 1.5879651308059692, 0.08778733015060425, 0.7465898990631104, -0.2271951138973236, -0.3539658486843109, 1.3893165588378906, -0.9030202031135559, 0.3647615313529968, -0.24205176532268524, 0.292944997549057, -0.6452760100364685, 1.2763671875, 0.873012125492096, -0.030026687309145927, -0.30207374691963196, -0.6093409061431885, -0.81659334897995, 2.3981707096099854, 0.8264152407646179, -0.3670027554035187, -2.3647356033325195, 0.9105960726737976, -1.100122094154358, 0.6532678008079529, 1.0525543689727783, 1.2676095962524414, 1.1389355659484863, -0.2215055227279663, -0.14418941736221313, 2.1795270442962646, -1.1876903772354126, 0.20827963948249817, -1.590706706047058, -0.022270899266004562, 0.8250493407249451, 2.4678173065185547, 0.8135722279548645, -0.13924269378185272, 0.46086812019348145, -1.701662302017212, 1.6100499629974365, 1.327470064163208, -0.4150744378566742, -2.3879799842834473, 3.6622586250305176, -0.2799687087535858, -1.0871258974075317, -0.25480014085769653, -0.3739832639694214, -1.5312931537628174, 1.0800237655639648, -0.165649875998497, 1.5353835821151733, -2.9869189262390137, -0.9526565670967102, -1.0632354021072388, -1.95772385597229, 0.5032877922058105, 1.6476294994354248, 0.6997218132019043, 0.23750947415828705, -0.8459478616714478, -1.7506605386734009, 0.4567999839782715, -0.18927913904190063, -0.8599845767021179, 1.6536139249801636, -0.2666286826133728, -0.343185156583786, 0.6946122050285339, 2.1466352939605713, -0.24041341245174408, 0.011748461052775383, -0.22290070354938507], [0.5135519504547119, 0.7095656991004944, 1.446850299835205, 0.1235867589712143, -0.9197630286216736, -1.0300233364105225, -3.356590509414673, -1.8480864763259888, -1.6045442819595337, -0.7369794845581055, 0.32018354535102844, -2.539454221725464, 1.929466962814331, 0.1710931360721588, -1.4022964239120483, 0.462338387966156, 0.5495398640632629, -0.8884153962135315, 0.06459227204322815, 0.9502575397491455, -0.7477473616600037, 2.9053356647491455, 0.7781150937080383, -0.5857714414596558, 0.8580171465873718, -0.2146245241165161, -0.29550275206565857, 0.3869594633579254, 0.8206706047058105, -1.8990061283111572, 2.2558021545410156, 1.0646644830703735, -0.2818358838558197, 1.9840164184570312, -1.2451623678207397, -2.1650333404541016, 1.1124078035354614, 1.1662073135375977, 0.43936580419540405, 3.7393574714660645, 0.2403298020362854, -0.910552442073822, 1.2047652006149292, -0.566630482673645, 1.5954351425170898, -0.8341854810714722, -2.037909746170044, -0.7914820313453674, 0.341831773519516, -1.4668188095092773, 1.1924419403076172, -0.31373071670532227, 2.595095634460449, -1.1402814388275146, -1.5050913095474243, 1.4964064359664917, 0.5313265323638916, -1.6313261985778809, 0.09707356989383698, -0.25054365396499634, 0.3465213179588318, -2.910266876220703, -0.17157778143882751, 0.1944412738084793, -0.19901451468467712, 1.4411237239837646, 1.3358714580535889, -0.3949471116065979, -1.0843948125839233, -0.6244137287139893, 0.6643897294998169, -2.0069687366485596, -0.7874099612236023, 0.7989988923072815, 1.5003546476364136, 0.0056208954192698, 0.8325589895248413, 1.656204104423523, 0.8071025013923645, -1.665931224822998, 0.04030092433094978, -0.9474124312400818, 0.15021739900112152, -1.9027169942855835, 1.1776801347732544, 2.9055166244506836, -0.24298575520515442, -1.9259454011917114, -1.1639554500579834, 0.7688189148902893, 2.2492029666900635, -0.5520735383033752, -0.1224319189786911, 2.209989547729492, -1.6862820386886597, -0.18512101471424103, -1.5921032428741455, 0.21458172798156738, 3.5376133918762207, 0.2958839535713196, 1.850507140159607, 2.2576818466186523, 0.12154850363731384, -1.51931631565094, 0.8592187166213989, 0.1114879623055458, 0.14213711023330688, 0.07807613909244537, 0.47275254130363464, -1.3513861894607544, -0.08104374259710312, 0.7340070605278015, 1.1084562540054321, 1.2578763961791992, 0.40912163257598877, 0.4592607617378235, 1.6389095783233643, -1.6909422874450684, 1.5746235847473145, 0.004752913489937782, -1.3158388137817383, -0.2595108449459076, -0.2746986448764801, -0.29473501443862915, -2.1574976444244385, -1.3327399492263794, 1.1955026388168335, 0.0674712136387825], [-0.5002177357673645, -1.416911005973816, -0.9017506241798401, -0.6703240871429443, 0.0030984091572463512, 0.21112412214279175, -2.1064774990081787, 2.419053792953491, 0.6958123445510864, -0.7041735649108887, 0.3820590376853943, 0.4048279821872711, 3.404507875442505, -0.4306068420410156, 0.40201956033706665, 0.9226291179656982, -0.11417994648218155, 0.08548121154308319, 0.6734631061553955, 0.7041054368019104, -0.009917951188981533, 1.121513843536377, 0.1367245614528656, 0.2599421441555023, 0.9628729224205017, -2.86736798286438, -1.691123127937317, -1.1773570775985718, 0.8517125248908997, 1.2405428886413574, -0.7304175496101379, -0.7972167134284973, 0.48552194237709045, -0.8683505654335022, -0.11345606297254562, -0.6546845436096191, 0.27693483233451843, 1.1721981763839722, -0.670347273349762, -1.1669845581054688, 0.3749869763851166, -0.346100389957428, 1.2694412469863892, 1.7098077535629272, 0.6820032000541687, 0.17769642174243927, -1.4814280271530151, 1.0784506797790527, 0.3910033404827118, -1.248498558998108, 0.11797752231359482, 0.5760493278503418, -2.758840560913086, -0.002750778803601861, -1.0860176086425781, 1.8711143732070923, -0.12321138381958008, -0.4495122730731964, 0.942104697227478, 0.7006320357322693, 0.8843908905982971, 2.1951303482055664, 0.7450072169303894, 0.03823821619153023, -0.08536505699157715, 0.21098680794239044, -0.30226951837539673, 0.7696453928947449, -0.6003046035766602, -0.8541347980499268, 0.6063064336776733, 0.07461932301521301, -0.8464605808258057, -0.646824061870575, 2.343235731124878, -0.4458809494972229, 1.4618839025497437, 2.103536605834961, -1.0371098518371582, -1.4405624866485596, -0.0446588359773159, 1.936063528060913, 0.4802664816379547, 2.3438475131988525, -0.5824189782142639, -0.0333365760743618, -1.0179171562194824, 0.4612005949020386, -2.402494430541992, -2.9818332195281982, 1.4375947713851929, -0.17509575188159943, -0.3374664783477783, 2.7606141567230225, -0.4342432916164398, 0.4790182113647461, -0.8604553937911987, 1.422987461090088, 0.3739730417728424, -0.8046844601631165, -1.775040626525879, -1.0846108198165894, 0.28733283281326294, 1.0892688035964966, 0.6493239998817444, -0.35194891691207886, 0.8158422112464905, 0.3070541322231293, 1.0461745262145996, 1.511678695678711, -1.0701149702072144, -0.3737718164920807, 3.676323890686035, -0.5501500964164734, -0.4302879869937897, 1.963478684425354, -0.6771422624588013, -2.6547882556915283, 0.7554852366447449, 2.0266382694244385, 0.8159181475639343, -0.3641076385974884, 0.3915812075138092, -1.303425669670105, 2.2904107570648193, -0.8057723641395569, 0.8714219927787781, -0.4790203273296356], [1.5201846361160278, -0.8311426639556885, -1.0049384832382202, 0.21264265477657318, -0.5074528455734253, 0.8228059411048889, -1.4785317182540894, -0.08908896893262863, -1.538599967956543, -0.11162084341049194, -0.13562192022800446, 0.6696682572364807, -0.7138378620147705, 0.09075621515512466, -1.1868410110473633, -2.7685699462890625, 0.11863014101982117, 0.29073959589004517, -1.8458400964736938, -0.7372739911079407, 1.0829676389694214, -0.9733235836029053, -0.2020481526851654, -0.9186318516731262, 1.9996845722198486, 1.5106937885284424, -0.3402661681175232, 2.4305362701416016, 0.5291320085525513, 0.3615577220916748, 0.7527453899383545, -0.22040560841560364, 2.581702470779419, 0.24057523906230927, -0.22332888841629028, -3.1688175201416016, 0.5782874226570129, 0.12778492271900177, 1.422291874885559, -2.6998133659362793, -0.5726706981658936, 1.3671040534973145, -1.4295969009399414, 0.2858681082725525, -1.0099289417266846, 0.9157926440238953, 0.07450856268405914, 0.9250614047050476, 0.6466693878173828, -0.7266954183578491, -1.6396106481552124, 0.7583317756652832, 0.8793203830718994, -0.7350255846977234, -0.4966161847114563, 0.2308976650238037, -0.011646594852209091, -0.855400562286377, -0.491396427154541, -0.23645217716693878, -2.1198954582214355, 3.040536403656006, -0.07398761063814163, -0.48735541105270386, 1.1682250499725342, -0.39952337741851807, -2.4541802406311035, -0.2898590862751007, -1.6333047151565552, -0.5164472460746765, 0.7211830019950867, 1.1427525281906128, -0.7053263187408447, -1.0183378458023071, -0.6814970374107361, -0.37153685092926025, -1.8889186382293701, 1.2270108461380005, -0.18182198703289032, 2.403944969177246, 1.121756911277771, -0.5261918306350708, -0.8084893226623535, -0.867119312286377, -0.1357697993516922, 5.582187175750732, -0.8333355784416199, -1.8147441148757935, -2.9729807376861572, -2.861433982849121, -3.2383365631103516, 0.2811037003993988, 0.004343228880316019, 3.2832117080688477, -0.05796496570110321, 0.47618404030799866, 0.7432673573493958, -2.8274834156036377, 0.015232809819281101, 0.6523582339286804, 1.2315359115600586, -2.077826738357544, -0.6093273758888245, 1.1713674068450928, -1.2263693809509277, 0.5091451406478882, -0.7052774429321289, -1.6440755128860474, 0.6381604671478271, 1.7866032123565674, 1.7948949337005615, -1.246687412261963, -3.399707794189453, -2.090271472930908, -0.41641736030578613, -1.9361923933029175, 1.3488963842391968, 1.494602918624878, -0.12500065565109253, -3.4936039447784424, -0.4741770029067993, 0.7025849223136902, 0.5357129573822021, 0.07275736331939697, -0.8066731691360474, -0.6407358050346375, -2.1276519298553467, 0.4763812720775604], [-0.6818548440933228, -0.3195301592350006, 0.27330148220062256, -0.3898375332355499, 0.7796622514724731, 0.02036203444004059, -3.5204427242279053, 1.7509021759033203, -2.129163980484009, 0.6807840466499329, -0.9235828518867493, 2.1462020874023438, -2.8354973793029785, 0.5541612505912781, 1.8267966508865356, 0.19460919499397278, 0.17542409896850586, -0.9203972220420837, -1.6243525743484497, -0.7627907991409302, -0.4966315031051636, -2.8664495944976807, 1.1328392028808594, 0.8783318400382996, 1.8502064943313599, 2.7222297191619873, 0.7120175361633301, -1.7456579208374023, -0.5875478386878967, -0.8580735921859741, 2.3044209480285645, 0.33636030554771423, 0.22023622691631317, 3.136969566345215, 0.8646194934844971, -1.9200176000595093, -0.3035392761230469, -1.3576406240463257, 0.2612161934375763, 2.5277881622314453, 0.5653287768363953, 0.8014913201332092, 1.6035054922103882, 0.7400115728378296, -2.3978676795959473, -1.4818718433380127, 1.7448828220367432, -1.0841346979141235, 1.120851755142212, -0.02642553485929966, 0.7477063536643982, 1.0745121240615845, 3.1602437496185303, -0.6593415141105652, -0.25116607546806335, 2.1466078758239746, -0.12856562435626984, -0.2886580228805542, -0.7528296113014221, 0.5516165494918823, 0.3211561143398285, -2.4260311126708984, 0.22950051724910736, -0.24590672552585602, 1.733568549156189, -0.47258374094963074, 2.348764181137085, 0.06844399869441986, -0.1651454120874405, 1.3803293704986572, -0.03967869654297829, 2.1189727783203125, -1.8454939126968384, 0.32092347741127014, 0.21661365032196045, 0.46933525800704956, 2.231896162033081, 1.8786929845809937, -0.02889677695930004, -2.49759578704834, -1.7655766010284424, 0.9475252032279968, -0.4514515995979309, 1.4466012716293335, -1.291940450668335, 2.418333053588867, -0.29189544916152954, 1.8934009075164795, -2.242424964904785, -2.6521894931793213, -0.9690788984298706, 0.4915706217288971, 0.2958572208881378, -4.625306606292725, -0.88153475522995, -1.1629585027694702, -1.171755075454712, 0.27507874369621277, -0.8717748522758484, 0.48168089985847473, -0.2766232192516327, -1.3982763290405273, -0.38162559270858765, -0.8214070200920105, -1.0438166856765747, 0.7262902855873108, 1.1960639953613281, 2.638723134994507, 0.952234148979187, -0.16551510989665985, 0.2935565412044525, 1.5114805698394775, 1.511351466178894, 2.0719962120056152, 0.28835198283195496, 1.4822795391082764, 1.3307160139083862, -2.3135898113250732, 0.39929941296577454, 0.46039995551109314, 1.174177885055542, -1.2357932329177856, -0.5807042121887207, -1.795522689819336, -2.8326256275177, -0.18984562158584595, 0.6478241086006165, -0.4221033751964569], [1.3849689960479736, 0.6209594011306763, -0.22518044710159302, 0.36657243967056274, 0.1831538826227188, 1.4770805835723877, 2.6850619316101074, 0.9126083254814148, -1.7277110815048218, -0.21088069677352905, 0.36538538336753845, -0.5751006603240967, 3.7985777854919434, -0.5320957899093628, -2.680191993713379, 0.25894787907600403, 0.23478302359580994, 0.6106896996498108, 1.0702784061431885, -0.24308955669403076, -0.8811315894126892, -0.10391120612621307, 0.22621212899684906, -0.09216751903295517, 0.5252805948257446, -2.8831820487976074, 1.077565312385559, -1.2911067008972168, 0.061111170798540115, -0.6497232913970947, -2.963989019393921, -0.38200515508651733, 0.7071300148963928, 0.42966070771217346, -0.11193552613258362, -3.4787375926971436, -0.016357015818357468, -1.4392017126083374, 1.0669893026351929, 0.05116806924343109, 1.447092056274414, -1.150862693786621, 0.22733277082443237, 0.5230687856674194, -0.2229204624891281, -0.2699233293533325, -0.33438363671302795, 1.2057602405548096, 0.3894553780555725, 0.9054692983627319, 1.4681576490402222, 0.2798175513744354, -0.824996829032898, 0.7757148742675781, -1.830761432647705, 0.5028340220451355, 0.9729227423667908, 0.5889525413513184, -1.638627290725708, 0.10566133260726929, -2.9857797622680664, -2.0599443912506104, -0.889114260673523, 0.39069056510925293, -1.2882660627365112, 1.1030727624893188, -2.369291305541992, -0.5156630277633667, -0.48464488983154297, -0.9880447387695312, -1.2051408290863037, -0.6170231699943542, -0.5182889103889465, -0.8341067433357239, -0.034424666315317154, -1.3693606853485107, 3.064082384109497, -2.6541106700897217, 0.09893372654914856, -0.8715217113494873, 0.5467059016227722, -1.8187544345855713, 0.08995189517736435, 2.626391649246216, 0.44287368655204773, -1.9760223627090454, 0.6206788420677185, 1.115201473236084, -0.04487932100892067, -3.266225576400757, 2.503493309020996, -0.6563103199005127, 0.24050278961658478, 3.284930944442749, -1.930722951889038, -0.5830731987953186, 1.1390435695648193, -1.1089460849761963, -3.408269166946411, -0.43213433027267456, -1.2877446413040161, 0.7706519961357117, 0.1208469420671463, 1.3516680002212524, -0.586275577545166, 0.8760627508163452, 0.39644095301628113, 0.13168038427829742, -0.033860351890325546, 0.5747440457344055, 1.8224650621414185, 0.4381491541862488, 2.7880048751831055, 0.29678627848625183, 0.4804961085319519, -1.0969836711883545, -0.9082337617874146, -2.478771924972534, 0.5036352872848511, 2.111797571182251, 0.2161795198917389, 0.19302591681480408, 0.6989715695381165, -1.4935581684112549, 1.8977965116500854, 